3267 10
the -1.2429934 0.6740321 -0.21498826 -0.19891277 0.36244008 0.5542556 -0.19489767 0.10505916 -0.62814236 2.2112453
and -2.0341253 0.81664467 0.26650012 -0.76240075 1.3675528 -0.8635222 1.3271499 1.8460183 1.5991707 1.361126
to -1.9114065 -0.21045332 -0.2566835 0.032781597 -0.7703852 -0.8413656 -1.3737208 0.027694613 1.564038 2.2611005
a -1.415678 0.18085697 -1.0613905 -0.43780333 2.6341784 -0.92448056 -2.1071792 -1.5486665 -1.0159848 0.88409835
in -1.7660342 -0.03672724 0.051105466 -0.48990422 2.7167075 0.51361805 -0.8670936 0.5683084 -0.1677497 2.0974674
add -2.5876014 0.96293676 0.26765758 1.0966904 2.0679133 -2.2315996 0.7101081 2.9976811 1.3373542 1.986082
with -1.3622488 1.5419513 -0.97042364 -3.1063435 1.3608578 0.24153063 2.1144476 -1.537883 0.3744911 0.22987938
for 0.6607655 -2.1234684 -0.39950582 -0.59395117 0.7094761 -2.2769032 -0.071089655 0.9382288 3.8756413 1.941322
minutes 0.205702 -2.9681957 -0.18077493 0.02551594 0.19043165 -3.0470352 1.8229672 0.84682256 3.6094365 3.6419194
of -1.2129612 2.0699518 -0.4363575 -0.81396514 0.022915078 0.21755718 0.76313967 -2.5548978 -2.394949 2.3918579
heat -5.3836694 -3.1212008 -2.2560358 1.0296893 2.2835176 -2.1652217 0.007214093 1.8595158 1.3908706 3.8084466
until 0.7971915 -1.9623013 0.6311789 1.58944 1.0390435 -1.7745812 0.7321613 4.445816 1.787078 4.703843
or 1.0657468 -1.1269236 -1.0067346 0.25998104 1.6287304 -0.53870904 -0.4833487 0.15261759 1.301027 1.2869447
cook -1.2079421 -1.9443586 -0.47782534 1.4400563 1.020691 -3.7849667 2.047819 1.7722455 3.2214625 2.8693604
water -2.6192718 2.644411 0.92045677 2.5570576 1.7055042 -2.7804456 -1.2677242 -3.1723995 2.25844 2.5084012
sauce -1.0160849 2.347276 2.098448 -2.6285892 1.0386318 -1.7102506 -0.19232662 2.8814638 -0.089120515 1.8139215
oil -4.263912 -0.46021938 -1.2973349 0.38430136 2.0439057 -1.7708466 0.33110425 1.6541743 -4.602712 4.0764837
over -3.1764565 -1.7964255 -0.6347621 -1.3938929 2.1375668 1.0532033 1.5262878 1.4037806 0.31886673 3.5427687
on -0.62593454 -2.1175056 -2.9457033 -2.618063 -0.04603793 1.7702539 1.449432 -1.0830762 0.0008952037 2.2488875
stir -0.91820574 -0.36972627 1.5026646 -0.15451317 3.12216 -3.488587 0.35076955 3.8507228 1.7379807 2.4435508
into -0.8168137 2.01999 -0.15932961 -0.7581768 3.3822372 4.4875956 -1.1199106 -0.58887476 -0.7655115 2.5799425
is 2.2285306 0.35127795 0.9351823 1.0437678 -0.49867705 0.20715858 -0.046613973 3.6659737 0.72609055 4.3941045
chicken -1.3867369 -0.005561834 -0.017238386 -1.0675687 -0.5767437 1.0355939 1.6039258 0.3223012 0.50181293 3.119202
pan -2.5951617 -2.520734 -2.3712134 0.5754316 2.3750703 0.4301214 -1.452654 0.05717243 -1.5618525 2.756804
large -4.418432 -0.5831631 -0.98224205 -0.5281155 5.6579523 0.33843267 -0.67520344 -1.804651 -1.6964048 2.7080631
salt -2.8871872 1.9297812 -1.5061065 -3.636103 1.1164105 -3.8460655 2.1156812 2.1732578 0.2837837 -1.1161501
you 4.6409297 2.5248566 -2.4086955 0.9248302 -2.1131325 -0.6970249 -3.053645 1.2891722 1.4092394 0.6421785
bowl -1.8318 1.671996 0.6980543 -2.443119 6.259809 -0.61280227 -2.01511 -2.2613504 -0.27175045 0.40186852
pepper -2.7066796 1.1842103 -2.5310113 -3.1074593 1.1039417 -5.200179 2.558268 3.6902359 0.13793202 -1.0839499
about -0.03181478 -1.4258114 -0.85952055 2.4269624 -0.013162967 -2.6020312 1.6055839 0.23231655 2.2218838 2.8187766
remove -2.4180682 -0.32493418 -2.6207473 0.7476971 -1.6849661 1.9549661 -0.9993164 1.5120541 4.3159437 2.1591086
it 1.5199745 0.7294644 -1.5928776 0.1308682 -1.758474 -1.1911918 -2.1786773 -0.261707 -0.597815 1.1298612
simmer -3.4921343 -1.7070421 0.7314122 -1.6258948 0.87004334 -5.755539 0.30757043 1.1819282 5.6370273 2.3556585
rice 0.7587448 1.323306 0.9241869 0.61148226 1.8259214 -1.79336 1.5121242 -1.063622 1.9243537 1.256973
garlic -3.2078388 0.75204664 -1.7992887 1.6629893 3.8756456 -3.5864806 1.5882382 5.062518 -1.0787287 1.5292792
if 2.2704196 4.3542814 -0.9690108 0.4210458 -2.5887969 -3.9729614 0.1487779 0.2478651 -0.12435159 0.038008798
shrimp -1.0930778 0.1740739 1.3007003 -0.08922464 1.9406402 -0.6534355 2.3742054 -0.13713795 2.220187 2.6701453
serve 2.3534312 0.9668163 -0.28147107 -2.7228186 0.27941513 -1.3743161 3.5307992 -0.7456954 2.039672 0.2609577
place 0.17117767 -0.11437273 -2.1075053 -1.7531441 3.2009933 1.8407667 0.049663365 -2.489973 -1.2787418 0.84806854
boil -7.0326004 -0.24969581 -1.558888 -0.34887955 1.2973936 -5.2677007 -0.9281801 -1.7098423 4.1047497 1.2921512
mix 0.27084202 1.4492857 2.382683 -3.7788405 4.7080107 -0.5528126 -1.2461482 1.9581275 1.1039228 0.99804616
then -1.3695819 -0.4443405 -0.15732074 -0.16300415 1.3596766 -1.2894938 1.0104216 -0.3516986 2.1714706 1.6018645
medium -5.4221888 -3.5908144 -2.153848 0.50448334 4.622796 -2.1548197 0.47308606 1.5475856 -0.24625975 3.665385
cover -2.3983493 -1.7456836 -0.42380336 -1.4333425 1.4764555 -1.7731597 0.87975013 -2.5704906 3.6372259 1.8650246
all 0.4735934 0.40154344 2.047805 -1.8605769 0.35405174 0.23462649 -0.46346933 0.035027914 -1.3792905 4.109084
hot -2.4522667 0.6150608 -1.1626902 2.6678872 -0.19081262 -0.81899035 1.0900935 0.4869671 -0.9113272 3.266274
butter -2.9783638 -1.5467854 -0.6415016 -0.7134828 4.7330627 -0.89739716 -0.83491987 3.6707356 -3.1305158 3.500038
mixture -1.3793033 0.8134968 1.7142972 -2.251843 1.8456156 -0.053885978 1.2346283 0.35136494 -0.15143192 2.3686798
from -4.1166553 -0.025334502 0.035096887 -1.7292054 -4.633942 1.0658921 -0.39595574 0.24192968 1.8115929 5.481126
onion -2.5982437 1.3258741 -2.1906784 3.2189999 4.5145 -0.8736589 2.7662034 4.638338 -0.28236023 1.6751887
oven -1.2910748 -4.9345922 -5.8266835 -2.896016 0.10186449 0.5927913 -1.3298348 -0.07730065 0.087645434 2.162894
let -1.0030154 -2.0131028 -0.07976629 -0.8165095 -0.50444794 -2.3039696 -1.0184224 -1.4161263 6.0527763 2.7035577
bring -7.527893 1.3226922 -1.1230421 -0.8731675 3.482394 -4.0703673 -1.876475 -1.1244472 5.158302 0.19016798
are 2.9096386 0.18479551 -0.48828626 2.2971616 -1.6344923 -1.182254 1.0601056 3.8506057 0.74548745 4.3022575
well -0.19545974 1.5659366 3.3320942 -3.0774827 1.8651978 -0.08145478 0.27797112 0.7767352 1.076767 2.478162
when -2.1081114 -0.7630123 -1.5933902 3.0656111 -0.76117015 -0.57420397 -0.67232955 2.9565148 -2.0910726 5.4876523
pot -5.327516 0.30342555 -1.6432526 2.3829553 2.9841795 -2.3739562 -1.8674526 -2.8868198 1.7101418 1.8523782
cooking -3.049294 -0.5092439 -2.0285895 1.9145925 -1.1128072 -1.0670016 -0.0985154 0.9771021 -3.0100393 3.930146
your 1.2313931 3.00144 -1.5597547 -1.1811229 -0.6458558 0.34429508 -2.115615 -2.2657316 0.2248589 -0.47446242
stirring -1.4290076 -2.2595265 1.3404394 0.6759112 2.1126902 -5.697117 0.11705022 5.972562 4.437186 4.6872244
ingredients 0.50384694 0.7672395 3.7963755 -5.0135913 3.863679 -1.0305436 -2.2554512 -0.21073781 -0.9092876 3.837723
at 2.9869068 -2.3184948 0.087862745 -1.9284605 -1.1347537 -2.5927103 -3.9707959 -0.030970823 2.5072403 3.3847148
combine -1.3622696 2.9870007 2.126953 -3.464987 5.9197903 -0.3596085 -1.1213375 1.071632 -0.48887703 1.394591
onions -0.77976966 1.3118172 -2.0164628 2.4588995 3.884184 -2.3143346 4.1942763 4.283924 -0.25331858 1.2294326
ginger -3.977942 2.1397583 -0.9787401 1.4075446 3.9603446 -2.633924 1.3782995 3.636711 -0.21620484 0.8200124
together -0.56086814 2.2048254 2.2748284 -4.812888 4.5590873 -0.028905584 -2.0088995 1.3577595 -1.2476807 1.975473
set -5.073611 2.3436704 -1.7923625 -3.1871333 -1.6439363 5.0472593 -4.289657 3.153196 -0.21832941 2.5393884
just -0.79936075 1.7306817 0.4089303 1.459361 -1.9838771 -2.7849474 0.72690845 -0.7651776 0.65968496 2.8219867
top 1.221416 0.43273664 -1.5318002 -4.180932 0.83847827 -0.096951984 4.152819 -2.3171306 -1.3289603 1.3304847
drain -0.7393549 1.7703742 0.82440585 2.7435737 1.7065557 -0.5601839 -0.5362838 -3.0962715 4.829917 3.042217
use 0.89999187 2.5551894 -3.074557 0.018837448 0.08000035 -0.9699233 -4.0168996 -1.7547525 -1.4664558 -0.68131834
make 3.122838 1.4569201 -0.89027596 -0.7340805 1.277254 0.71328413 -2.9079819 1.0188937 -3.2672222 1.5589874
turn -3.820029 -3.6115558 -3.2458472 0.21602659 -0.39148235 -0.49060303 -0.24905336 2.4937189 3.6651378 3.2092261
cooked 1.6413155 -0.25650746 1.1027238 -0.29432514 0.24868108 0.6715477 2.8248591 2.3695204 1.9405679 4.1887956
skillet -4.038458 -2.4060466 -2.709016 2.4696665 3.6217651 -0.30847454 -1.3314341 1.10273 -1.2860936 3.2257912
as 1.2635367 5.3442397 -1.2603935 -1.5206116 -3.195961 -0.5343566 -2.8334892 -1.6100554 3.0042102 -0.3601413
seafood -0.2479671 0.030712517 1.1362878 -1.5253443 0.8665771 -0.3859656 2.1485238 -0.073947124 0.80904293 2.7288349
broth -3.018737 1.7269379 1.3026636 -1.1839573 -0.13170783 -2.222217 -0.20840093 0.14982629 3.1916118 1.6316272
not 1.6103193 1.6254308 -3.5946927 5.31868 -2.513359 -1.0874593 -1.8215852 1.6267239 0.7290354 2.2930338
this 4.1299644 1.5531168 -1.0002569 -2.1036367 -2.5166786 -1.8391798 -1.5179886 -0.86468285 -0.33303902 1.2091925
pour -1.1699526 0.35565987 1.6674739 -2.118044 2.819447 -0.08267428 0.9999489 -0.20432429 -0.6512096 2.6803296
high -4.771602 -4.6005583 -3.5800812 0.62584525 2.8657699 -2.1027873 0.14648919 0.14361759 0.39236945 4.342917
brown -0.17927328 -1.3836799 -1.9638549 1.1331798 -0.56210285 -0.7353386 1.6842922 4.6546564 -0.86812866 3.0172155
small -2.7502701 1.5084004 0.73582685 -2.0361297 5.2833357 0.18474267 -2.5036874 -0.8623772 -1.2027748 1.4993951
minute 0.6849213 -1.3460575 1.1141257 0.6945978 2.1975698 -4.8007402 2.0779185 1.6386046 1.8150403 2.3688035
wok -2.8857353 -2.5034063 -0.8914793 2.3815966 3.0330164 0.09908418 -2.142646 -0.6146907 -0.8306868 4.800095
juice -2.6335378 5.7333307 1.1441292 -2.8856308 1.900739 -3.9832861 0.90518713 2.1387668 1.3624369 -0.40678722
cut -0.17614172 2.874893 -4.0585985 0.020443428 2.2733502 5.139034 -0.20312664 -0.98257655 -0.04059965 0.077151895
noodles 1.0537804 1.6628726 0.6237209 1.7529362 2.6599584 0.10042245 1.0464705 -3.233082 1.5469184 2.9154413
aside -2.90672 3.5616586 2.845696 3.4542918 1.9009886 0.18338728 -6.4972143 1.1798542 0.77354646 5.2677283
each 0.29244593 0.6376865 -2.9234676 -1.8888649 0.31032938 0.96435654 3.6830304 -3.4594707 -1.7079408 1.6438036
up 0.34534296 -1.5469681 -3.2008872 -0.40567276 -1.0865761 0.15856233 -1.3251574 -2.4260712 0.9000894 1.3650434
be 5.2145605 2.2192998 -4.3124504 1.474917 -3.3398392 -0.1892881 -0.98818827 0.35583803 0.8531718 1.0721596
remaining -1.5099341 1.0752703 2.5414574 -2.2045627 2.7258048 -0.2793184 1.067306 0.13189308 -0.763745 3.0395796
meat -0.50973797 0.60432035 -0.11975837 -0.42671472 -0.9113288 1.4947441 1.3137122 0.21095723 1.1237831 2.8205695
more 1.3810692 1.5451256 0.03522815 1.0695114 -1.6169516 -5.031975 -0.59710324 0.26304105 1.6021575 1.0878364
fry -0.3522513 -1.3205402 -0.25357646 2.2493908 1.7630129 -1.4375486 1.0442336 3.0063183 0.16428548 3.507671
toss -0.7231795 0.70955545 1.3029418 -3.4737275 3.160542 -0.25929904 1.925893 0.727256 -0.2615887 1.2861446
green -0.66583025 3.4980097 -2.3371391 2.8915386 3.9901645 0.13022535 3.669014 2.6453252 -0.2563234 0.41529286
cheese 1.2458012 -0.14403647 0.48354912 -4.3557463 2.6794086 -1.0069067 4.799429 0.8716576 -0.48593935 2.3485394
out 0.56837726 2.5882568 -1.885001 -1.8459728 -1.2947497 1.5782698 -1.9625044 -4.4358263 -0.47584692 1.2993138
baking -0.2872178 -2.5867105 -3.862746 -6.285153 2.0031962 1.7787238 -0.40636167 -1.349048 -2.313998 1.6292506
sugar -1.8943393 3.2263658 2.5695508 -2.120357 1.5810907 -3.5902622 -0.1681773 4.518944 0.80711246 1.8421657
saute -2.6236231 -2.5455515 -3.412502 2.9188278 4.149881 -2.5166245 1.2448823 3.0626204 -0.6092205 2.7409313
through 1.1388693 -0.74617267 0.09498988 -0.63021994 -1.0754006 0.7462701 3.3434153 0.9082555 2.624893 4.410715
low -3.7637224 -4.780405 -1.9101284 -1.4694598 2.4595141 -3.3879342 0.5204612 1.7996532 3.3523946 2.656423
side 1.7312424 -2.249514 -4.455691 -0.9089973 -1.3576905 0.83631223 2.7549257 -2.3642266 -0.3532741 2.920654
cup -2.2579672 2.7659998 2.5025957 -1.4977325 1.3065633 -1.6279393 0.92439735 -1.7095627 0.14208028 2.5656435
saucepan -4.7319355 -1.1901447 -0.827429 0.19009073 5.0434675 -2.176774 -1.9436456 -6.20837e-05 0.53174466 1.5076622
using 1.8357488 3.445868 -1.8941715 0.21119845 0.24916367 1.0388012 -1.3556812 -0.05962551 1.8260038 -1.4383075
that 4.2344384 -0.33033952 -2.9570372 1.9451948 -1.0429045 0.8210962 -1.468746 -0.20677856 -1.0392466 3.2575877
reduce -4.892033 -1.8153979 -1.2830266 -1.7136399 1.4878075 -4.1526136 -1.0426472 0.9452363 5.839871 1.547373
soy -3.3434768 4.751848 2.2452784 -2.4323313 2.6051562 -2.5147603 0.29867515 4.842004 -0.35086343 2.4293985
season -2.8534653 0.40084553 -3.6327791 -5.0883284 -1.0925021 -3.4811637 3.8219013 0.9871771 -0.45539498 -0.5115424
will 2.321675 1.2700739 -2.5773416 1.5959048 -3.3853226 -0.009778685 -1.344737 -0.7589521 -0.7323861 2.322553
them 1.2996324 -0.4194519 -2.3202372 0.61492777 -1.7715424 0.2818675 -1.3048625 -1.224157 0.7881976 2.172582
fish -0.6126145 1.3536451 1.0877457 -1.5676509 0.76659656 -1.3537047 0.44295266 1.1170343 1.4099091 0.9355788
whisk -0.31771213 1.0203885 1.5362147 -1.8974531 5.1763806 -2.6852007 -4.1246295 2.68632 -0.9127485 2.125657
do 2.0693135 1.4590397 -3.5352557 2.7343462 -2.8449204 -1.394861 -1.4169811 0.009406465 1.1790326 1.0982577
i 3.781047 2.105542 -3.3507519 -0.61833173 -1.7949971 -1.3174127 -1.7373023 0.21286795 -0.5242431 -0.3473082
lemon -1.1231145 4.596728 0.48565686 -3.9024994 1.3683047 -3.9051342 1.8786432 2.200634 1.3989342 -0.87691003
can 3.8902442 2.2995303 -1.2720392 -1.288688 -3.0390937 -2.3462863 -1.6479108 -0.7282868 -0.9650702 1.273109
sprinkle 0.07149215 0.83316475 -0.804675 -3.8374252 2.2697635 -2.0357063 4.2144403 -0.27869692 -0.22785446 0.022448001
pieces -0.13450964 0.5946757 -1.0109459 -0.37069875 2.1729274 3.6210244 -0.67339194 -1.1962781 -0.402741 2.494615
before 0.6089192 1.3134449 -0.27875176 -1.5009013 -3.004267 -4.0911145 0.72152317 -3.0680406 1.8610089 2.1869335
so 3.472899 -1.7759944 -2.84833 1.8761562 -0.92684805 -1.7474985 -0.57595277 0.12531473 -0.6015656 2.7758942
taste 0.19010825 2.2796328 -1.2250392 -3.3226206 -2.4100127 -4.0058465 1.3409818 1.3998952 1.079703 -1.0993459
olive -3.8041456 0.28554177 -2.3060646 -1.0278597 2.091931 -1.4734726 1.218323 1.4714514 -4.76792 2.087649
serving 1.2399317 1.9401741 -0.38128987 -3.5011668 -0.91824484 -2.1548197 1.8879234 -3.2095125 1.4575859 0.5445089
very 1.0290676 0.8859749 0.5748525 0.52025324 3.0049787 1.2198904 -0.65710795 0.16158326 0.25823817 2.0590255
flour -0.33025202 -0.06940701 1.368489 -1.2884021 3.0746434 -2.7954361 -2.3346772 2.9250414 -1.7702917 2.5234976
coat -0.5388809 -1.2298279 0.68156195 -2.9924445 2.260557 -0.85886896 0.644851 0.97360367 1.1006259 1.894741
tender 0.49688563 0.19115071 -0.13268791 3.3650622 0.14820528 -2.1118627 1.9889047 3.502703 2.5348213 3.3735487
bake 3.0143113 -4.85545 -2.6129878 -4.0431957 0.19586237 -1.0065275 1.0183877 -0.5649471 1.7516903 2.8679469
off -1.9820322 -0.18612273 -1.0127945 0.34132394 -1.6178936 1.0124824 0.25093636 -1.4153786 1.893252 3.2036924
preheat -1.2742095 -3.5978067 -5.592126 -4.476028 0.1232134 2.0834987 -2.398978 -0.20748849 1.0897497 2.5810213
seconds 0.97617775 -1.8648738 -0.14463282 2.5582557 1.4285 -3.534223 0.60496473 1.3373599 2.2366953 3.5098948
have 3.7160096 1.6335349 -1.58993 0.5938236 -1.3788168 -1.2740867 -1.2160199 0.97082555 -0.7382409 1.3913008
tomatoes -0.027158596 1.6421599 -0.8446432 0.23499866 0.9780444 -4.2431974 2.9151871 2.4743528 1.8417555 -0.042872764
half -1.0794363 2.6039565 -0.6150177 -0.73061085 1.1280874 0.99810886 0.78738356 -1.0462959 -1.6088719 0.721308
but 2.2200642 1.3693498 -3.1889787 3.101542 -2.519723 -1.8797665 -0.06350889 1.6196833 0.14073314 2.232321
they 3.8113766 -1.3349154 -3.5406039 2.7976573 -1.199221 -0.38261947 1.0043728 2.544082 1.0219803 3.0330288
by 0.90723735 1.4650465 -1.8945774 0.96963245 -0.21499759 0.2418596 -0.86490685 -0.7672243 0.08581149 1.2183452
one 0.30493534 -0.705597 -1.8643839 0.5199339 -0.31393757 -1.1423888 0.4153055 -2.2709038 -1.7269487 2.4192815
cream -1.2949817 1.1757791 1.1995083 -2.6980317 2.8935788 -2.164697 1.3600153 1.8157402 1.1525439 0.464905
discard -1.3479038 2.916035 -0.6804671 0.7619238 -1.4407253 1.0462985 -0.21395278 -1.0486513 2.5564184 1.7266299
powder -0.5397649 2.806549 -0.8029775 -2.2904067 3.2113848 -4.2176404 0.8002948 4.565965 0.07573602 -0.8424864
little 0.5482153 1.2715108 -0.9945939 0.78678685 0.98713857 -3.9033322 -2.608044 0.44484323 -1.8811085 0.7115688
while 1.2752907 -0.118755296 1.034832 0.41140896 -1.4932693 -0.5757424 -1.3862246 0.9384154 -0.6204002 3.9339464
immediately -1.9044518 0.22897272 -1.0333807 -0.6890804 0.6726767 -0.9837727 2.4597645 -1.5001965 3.5730343 1.5220026
dish 1.162879 -1.5380347 -1.8644472 -3.837407 1.633819 1.4750522 -0.9523948 -1.7190357 -1.3891225 1.552818
cool -1.2987906 0.33141875 -0.060683656 -0.13366687 -1.3958594 -0.98001593 -2.5924096 -2.0600874 2.3890467 2.6812863
put -0.48598373 -0.60391104 -1.1093041 -1.2663435 1.0645725 1.3416083 -0.91915405 -0.64000076 -0.71007 1.6395528
lightly -0.5791579 -1.3443544 -1.5042508 0.1948273 0.20890547 -0.50755113 2.1947532 1.816219 -0.63623625 2.915965
hours 1.4477035 -3.4777424 -0.7699518 -2.7085743 -0.6827789 -1.6863662 -2.232727 -1.5809542 4.075745 3.2702684
keep -1.1034783 -0.11359884 -1.3205893 -0.5974665 -0.7657415 -0.23799329 -1.7145427 -0.32138568 1.5382237 1.253113
spoon -0.54477537 1.0785507 -0.48389685 -1.5764906 1.9282503 0.11535156 -3.000084 -2.3883698 -1.1850432 1.2989403
milk -1.4632647 1.8665105 2.3597171 -1.3974338 1.4772042 -2.9137921 -2.2670207 1.6746067 1.4081602 1.190637
time 2.7938309 -1.1960683 -0.6950746 0.38998026 -0.74814284 -3.5459673 -3.8104322 -0.11084016 -0.39399672 3.2236996
another 0.6547759 -1.6551929 -0.17210561 -0.24308334 1.3641033 -3.2124174 1.3851429 0.41606084 1.6313967 1.6213406
chopped 1.5635222 2.86025 -1.3948638 -0.6691864 2.5568013 -2.2184782 4.171183 1.6134915 -0.6086528 -0.23832202
an 0.95274264 -1.9548553 -0.9995723 -2.0165215 -0.8011034 -2.461799 0.63417757 0.37803337 3.240165 1.9708089
red -2.398253 2.4716806 -2.8724735 1.0047681 2.5877292 -3.223755 2.5159361 3.5864112 -0.31696305 -0.5129304
cornstarch -1.9877167 2.454293 2.3493507 -2.3640966 2.1643357 -1.859109 -1.1455058 0.05917684 0.86127067 1.6381088
leaves -0.55108553 3.4621365 -2.1042476 -0.55435956 -0.39072993 -0.7751041 2.8055863 1.5148209 1.5695813 -0.8397659
should 3.673422 2.1738112 -1.5150623 1.2320032 -3.1652074 -0.8258566 0.6347846 0.41638252 0.31817484 2.9692986
rest -0.08848969 0.025359467 1.4105766 -2.2185073 -1.8029635 -1.7967128 -1.3015121 -1.1142472 -0.39623228 3.2630148
egg 0.9551975 1.851017 0.04681343 0.041425124 1.5170277 0.3030041 -1.3274103 -0.39139462 -1.3515106 1.1996046
continue -0.312528 -1.2220942 -0.27877125 0.4295495 0.014316024 -4.1042557 -1.1225681 2.6481154 1.4904903 2.2896037
wine -2.3597643 1.1045588 0.7084619 -0.36209399 1.3478588 -3.211175 0.0650661 1.8963149 2.5461044 0.92534065
scallops -1.5007048 0.09386458 -0.37576988 0.911289 1.429936 -0.69088656 1.4023283 0.60460067 1.8254427 1.7863601
return -3.386596 -0.2840274 -0.20785813 0.09005875 0.5582289 -0.36682063 -1.563088 -0.067006 2.192187 2.2940207
pork -0.9079358 1.3879325 0.05206843 -0.44627485 1.1025357 0.485149 -0.21308745 0.8563941 0.6969024 1.3027463
stock -2.798608 1.4823343 -0.29148203 -0.28435355 1.0192778 -1.8550141 0.39274338 0.4007125 2.1492314 0.24852078
gently -0.94524664 0.16790232 1.4673165 -1.434025 1.9735903 -0.9887677 0.96328974 0.655155 2.150522 1.7934366
paste -1.0574538 1.7340711 0.5229411 -0.06452911 2.9310067 -2.5680718 -1.4523793 4.211889 -0.3602906 0.5920921
eggs -1.4228753 0.9836504 0.817886 0.5080829 1.8204687 -0.5485796 0.14889339 0.39192653 0.62069815 2.2555354
grill -0.83278817 -3.829174 -4.106664 -1.3483746 0.3223933 1.0271345 0.04401428 -1.3129468 0.10306146 2.953935
sides 0.41006297 -0.93947124 -3.1297498 -3.3084772 -1.0313641 -0.86757934 3.2658837 0.36729863 -3.06926 1.7048212
warm -0.8924876 -0.014263797 -0.13131838 -1.3153602 -0.14268057 -0.17901921 -0.11070401 -0.35163504 1.0912505 1.3852694
liquid -1.0906411 0.13764386 0.79177487 0.03962245 -1.0877634 -0.7950715 -0.4464731 -0.17061156 0.7427246 2.9897926
paper 0.25151917 0.22616646 -2.6398985 -1.7330465 1.5727484 2.4659967 -0.07753988 -5.116933 0.6964593 1.6708192
food 3.8505828 4.3187366 0.256176 1.2949139 4.488756 -1.138419 -1.7135128 0.20331335 -2.817603 1.004866
dry 0.2613324 1.6184541 -0.5174613 -0.035384595 2.6572218 2.0504928 -0.66785794 -3.058574 1.2435367 1.6490741
any 0.99104136 2.2885802 -2.4630685 0.71769905 -1.9027519 1.1632054 -1.3549476 -2.0229712 1.3625083 1.5101893
browned 1.5304588 -1.2302372 -1.2078353 1.0073231 -0.4639045 0.35543284 1.9268814 2.1527317 0.42116138 3.1503153
sheet 0.79038614 -2.0442255 -4.4882584 -5.025114 1.1288451 0.7420171 0.48363778 -1.7382286 -1.4566157 1.7028209
rinse 0.5649015 3.2267373 -0.05495155 0.72180873 1.7766767 -0.35638404 -0.13689856 -3.5228138 4.6588163 1.8334215
pasta 0.32485846 1.2516787 0.68016493 0.085398875 0.4144717 -0.54964274 0.70983267 -1.1580589 1.3976579 1.6251103
additional 0.9658377 -0.34281328 -0.45321667 -2.0257034 -0.21478716 -3.4863005 1.3326756 1.8591534 2.5685048 0.48390633
done 0.81571716 -0.37418044 -0.6256698 0.810265 -2.1337163 -0.32545954 0.18500291 1.1929203 1.3460746 3.0404878
like 2.9574192 2.960203 -3.4627602 -0.49942595 -2.4204073 -2.1534204 -0.8311129 -0.00025288877 -0.9637144 -0.24600129
smooth 1.254873 1.3309091 1.4221147 -0.5313095 1.2459484 -1.34178 -1.9855636 3.005233 -1.0326586 2.0152516
soup -1.2958685 1.0390203 -0.14788002 -0.65140873 0.23658368 -1.681791 -0.20084533 -0.35129422 0.75994277 0.7655183
boiling -2.4885151 0.046784252 0.18089949 2.6764762 0.54955477 -1.6595564 -0.07160791 -1.2124755 2.8390293 2.9968777
cold -0.3854249 2.471194 0.12770402 1.2316351 2.2934132 -0.6351556 -0.5949186 -4.2541237 2.8795671 1.573015
cilantro -0.54465467 3.570348 -0.43988305 -0.9814382 1.585355 -1.5793684 3.0139353 1.1038312 1.1644526 -0.37281144
marinade 0.48049742 0.08971694 -0.005288652 -1.9512146 0.28881985 1.2108468 -1.3453268 -1.2898917 0.43050382 2.3029933
beef -0.6040428 1.0676051 0.35535088 0.20422131 1.6541046 0.9475564 1.0626079 1.7581872 -0.58319676 1.9812126
parsley 0.39493594 2.3711765 -1.0328904 -1.673998 2.0105438 -2.024244 3.8339102 1.5498056 0.26336452 -0.2649564
sesame -1.590141 3.1540136 0.5803731 -1.0657046 1.4286838 -1.3345946 0.29637238 2.6338146 -2.0241039 1.0785137
tomato -0.92264163 1.334741 0.5376229 -1.2266207 2.1452825 -3.1787314 2.142832 3.097205 1.0398345 1.0100768
bit 0.10816815 0.31918162 -1.9071931 -0.08782976 -0.40654823 -1.8012267 -2.8799622 -0.6215562 -1.393842 1.0570954
processor 2.5261543 4.682127 1.1049043 -0.115428425 4.2484956 -1.5811857 -1.8843502 1.3353417 -4.1058598 1.3551365
golden 0.89536 -1.3170984 -1.799604 1.2322437 -0.43776852 -0.38345817 1.8649613 3.9620037 -0.5934223 4.179863
curry 0.15095249 1.5655442 -0.31362548 -0.08572845 1.7401392 -3.286416 0.39629847 4.0128236 0.23479097 0.13491967
back -2.114819 0.28453663 -0.14068554 -0.5025677 1.053383 0.6658317 -0.6276911 -1.6371838 1.2022619 2.270209
fresh 0.9519191 3.7824562 -1.009331 -1.0592337 1.6578735 -2.0848203 2.4695046 0.33859685 0.46525168 -0.958788
desired 2.1257873 3.104609 -1.626792 -0.8823495 -0.5995981 -0.8620376 0.93107873 1.978287 0.91012627 -1.251279
cumin -2.489929 2.3080394 -1.7026803 -0.4147101 2.9938562 -3.8744702 2.1904848 3.7633543 1.2669573 -0.4637337
spread 0.5256299 -0.1578064 -0.3505819 -3.9201202 1.5947028 0.68605715 2.0987468 -1.5698844 -0.21186544 1.5176227
slices -0.80798244 2.1875277 -1.5272386 -0.48229608 1.5555806 0.81557554 1.4292846 0.23860976 -0.7540318 -0.07963497
sure 3.6539605 1.4328663 -1.8105214 0.22284305 -0.10570487 1.0359087 -1.6784179 1.460174 -3.4057372 3.2438173
once 0.4617008 -0.032078564 -0.4336204 1.0045987 -0.6090078 -1.140983 -0.43910825 2.0280647 -0.043430492 2.6819277
bag 1.1771339 2.0207813 -0.83849084 -2.9473524 1.3573331 1.4128376 -2.4088109 -2.4166152 -0.80090195 0.69264525
thick 1.5412562 2.5447402 -0.759718 0.5994948 -1.5649759 0.16395685 -0.19670771 0.24264899 -0.28551129 1.4213259
down -0.4385362 -1.0376266 -2.9458103 -0.4492462 -0.6586374 1.3442116 -0.68729293 -2.705808 0.07974486 2.4010048
garnish 0.9402561 2.7858791 -1.327225 -2.1549191 1.1130917 -2.0447187 2.7958899 -0.09937932 -0.2832325 -0.9899961
layer 0.627922 -0.82584876 -2.021469 -2.8704453 2.0297046 1.6546274 1.2737372 -2.0761895 -1.6371764 2.1579733
dough 2.302444 0.7184753 -1.2895486 -1.1447092 0.7256649 1.0811272 -2.2508514 -2.2537217 -0.18927717 1.2730783
tablespoon -1.669095 1.3534746 -0.19861874 -0.02722859 0.7427301 -1.8894564 -0.2156478 0.11678208 -3.156089 2.4775898
slightly 1.2855046 -0.80997014 -0.88542074 0.93263537 -1.0078063 -0.9274133 -0.008939239 1.3289908 1.004479 2.544821
roll 1.8212738 1.6040468 -3.2505906 -2.2004573 -0.0152162295 1.6948991 -1.1264359 -3.596257 -0.5801178 0.9642558
crab -0.47263107 2.020154 0.3873566 -0.6168143 1.4660254 1.0682002 1.3696669 0.51935995 0.7999619 1.6123418
evenly 1.2570685 -0.7940181 -1.4796338 -2.0360255 -0.31115225 0.32376203 1.7622865 0.79598594 -0.5544584 1.9745238
allow -0.40896612 -0.47445652 -0.7258956 0.4045418 -0.8148633 -1.3358929 -1.8129512 -0.36354625 2.9898217 1.6523644
few 0.30490705 -0.404418 -0.38638005 0.754863 1.0032526 -3.0780294 -0.67154914 0.4781899 0.8213152 0.61601853
vinegar -1.1644347 3.5065918 0.542571 -1.6870995 2.5599594 -2.6031642 -0.219641 2.0977335 -0.30568296 -0.28848708
roast 0.15317936 -3.3823304 -2.9102948 -2.128326 -0.4372519 -1.0072964 0.52653265 1.6842009 -0.044132803 1.7836417
too 2.8807523 3.5362825 -0.8058546 0.93129414 -1.9910854 -1.1589112 -1.0486038 0.99724346 -0.0492308 1.2906574
frying -1.6521308 -2.0986843 -1.965505 0.1373902 1.7581434 -0.05678182 -1.001402 0.65055245 -1.4690423 2.3210125
other 1.628821 0.45100057 -0.720774 -1.2599684 -0.42985627 0.505948 0.24489895 -1.0811161 -0.29176858 1.9943717
dressing 1.1426347 2.4895787 1.0235181 -2.5565536 1.6575264 -0.81464 0.0017460061 0.38831618 -1.2486655 1.0660274
has 1.9245324 -0.75792754 0.0851969 0.7308661 0.36280158 -0.49823543 -0.41102678 2.3132176 -1.1770185 4.0044847
vegetables 0.62332195 -0.00893605 -0.06084767 0.77765167 0.9127676 -0.9034387 0.90885985 1.6177254 0.56064963 1.831509
plate -0.83893234 -0.37449768 -1.9166727 -1.6349732 0.36526832 0.64223564 -0.5205926 -1.9609725 -0.8730043 1.3792
wrap 0.9965723 -0.11909674 -2.8558133 -3.1043718 0.1812434 0.5478741 -1.6060674 -3.7284873 -0.045562424 0.8232466
bottom -0.7898294 -0.968075 -1.405691 -1.0314872 -0.03973956 1.2014467 0.5423666 -1.6778897 -1.0474205 2.3767853
chili -0.5124072 3.6633627 -0.52641743 -1.8912644 2.0262358 -2.701752 1.0852922 3.376554 0.21245922 -0.21630645
cups -0.48252591 1.6944358 0.79682887 -0.59008706 0.71429217 -1.7142524 0.6502559 -2.6569374 0.7939258 1.3985155
carrots -0.6236538 1.2348105 -1.002081 1.7581528 1.9645005 -1.4120226 1.502711 2.0672739 0.34460858 1.1974717
covered -0.09841485 -1.9473095 -0.58328086 -1.6915574 0.26710093 -1.1282145 -0.62183106 -1.2768339 2.5908935 2.0303044
potatoes -0.17106739 0.11910565 -0.37331262 0.36759603 0.4447018 -1.3139529 0.6671118 1.5418626 1.0912114 0.84659976
celery -1.3231388 1.3465114 -1.7744402 1.6181116 3.4815567 -1.4967636 2.372707 2.9098413 0.07632803 0.8697973
sprouts -0.44122383 2.2799082 -2.1469197 -1.2215403 0.07644565 0.9741658 2.379392 0.9899054 -1.7687038 0.5803987
constantly -0.08542684 -1.1295868 1.0481976 0.3560089 1.6474491 -2.800918 -0.16928609 2.5942562 1.739434 3.0892541
take 1.3757316 0.259056 -2.6284661 1.0591079 -1.7630478 0.21367133 -0.7685301 -0.58563817 1.3716286 1.9206713
enough -0.79734474 1.1412473 -0.07438543 1.081241 -0.7304344 -1.1336682 -1.2792127 -1.5148339 0.5925599 2.3592346
lid -2.1624188 -1.4229077 -2.0298865 0.80776054 -0.41654953 -1.1491544 -0.041614108 -1.8800462 1.6204376 2.8118517
spices -1.0570287 0.64694375 0.04765984 -0.16037191 1.5366461 -2.1857874 0.9491468 1.4252675 0.41097146 1.0490032
salad 1.6068671 2.3742192 -0.41082364 -2.5743856 1.7355219 -0.26347473 0.44872317 -1.0429792 -0.32919306 -0.16929547
hour 1.8541712 -1.7563002 -0.75609344 -1.8957691 -1.0282155 -1.827742 -1.0800556 -0.871732 3.3181787 2.350709
some 0.34059033 2.0239642 -1.1480348 -0.5459417 -0.59394574 -0.03645856 1.1501429 0.07995677 -0.7219213 0.7868002
tablespoons -2.2335207 0.3803997 -0.5721969 0.35038194 1.7014749 -0.7993832 0.43535408 0.27440283 -2.3196983 2.2469692
soft 0.62827426 1.1089646 -0.34468836 1.4291801 0.122267015 -1.0041894 1.1882421 1.5837387 0.8232884 1.4488443
roux 2.9356234 0.1840003 -1.9743794 1.6700586 1.6874665 -1.0270226 -1.1067326 2.4706893 -1.7223617 3.009473
blend 0.51827395 1.2674781 1.1873217 -1.5135146 1.8985968 -1.532963 -1.3958486 1.480608 0.22040176 1.0094274
peppers -1.1151323 1.4347287 -1.8629013 1.4399668 2.0841897 -1.7167113 2.162052 2.6555004 0.019658403 0.21998772
sit -0.39622647 -0.47361925 0.28599736 -1.1348072 -0.91023713 -3.0695086 -1.9811873 -1.4102933 2.1767225 2.1206722
thin 1.157492 3.6024454 -1.5511894 -0.9620859 1.2288154 2.18706 -0.32833132 -0.5813598 -0.1794637 0.039106768
bay -1.2901348 3.215458 -1.2330763 -0.86350346 -0.2758433 -2.3178608 1.9184693 2.4166586 2.2577002 -0.41325423
melt -1.4739847 -0.6188871 -0.7741914 -0.032463223 3.2462385 0.013730613 -1.3070308 1.4059179 -0.88674504 2.4206123
peas 1.4411907 1.6960963 0.09857441 0.9817842 0.04432978 -1.0440578 1.3871356 0.79937506 1.6690087 1.5918798
ready 1.6584326 0.27814603 -0.389598 0.13243482 -1.5862689 0.37113267 -1.7303127 0.69755214 0.77929175 2.202002
slice 0.5515277 2.8496072 -2.0428474 0.1697546 1.9034271 2.2367666 0.6101913 0.10924794 -0.22458266 0.3262794
mushrooms -1.702353 0.99331194 -0.9664568 1.5612609 2.3267972 -1.4855545 0.63357824 1.9661237 0.6499621 1.0712975
refrigerate 1.913177 -0.7868797 -0.17158902 -2.9478307 -0.32574993 -1.321693 -2.0084317 -1.7481045 2.613213 1.9957851
marinate 0.5006831 -1.174451 0.7310636 -2.982199 0.39717293 -1.0996213 -2.1144083 -0.9278225 2.1051433 2.0920107
lime -1.8032477 3.8144593 -0.26942837 -2.360072 1.0743586 -2.6864877 0.9955658 1.1323273 0.8443792 -0.6128252
inch -0.8947753 0.25161558 -1.9838917 0.17016812 1.1505772 1.099805 0.018006228 -1.5559357 -0.6306258 1.4760269
open 1.1516742 0.4842519 -2.1140118 1.0656621 -1.6373479 -0.559519 -0.23788036 -0.28790346 0.975215 1.9082085
fill -1.8692306 1.7609348 -0.8775725 0.49848676 2.2073586 -0.24049346 -0.85500807 -3.3076396 0.3103751 1.2272019
temperature 1.6722559 -1.6998174 -1.7853001 -1.5017155 -1.5371794 -1.6209859 -3.5028758 -0.9328557 2.8854258 2.6508017
both 0.043434396 0.1941182 -3.7012086 -2.6087847 -0.98805255 -0.9173822 3.2200525 0.70833457 -1.8713003 1.1557533
cabbage -0.791373 1.945804 -0.10156745 -0.42715755 2.3625379 -0.85252 0.653601 0.5116768 -0.42579263 0.27468204
sauté -1.1414435 -0.90158504 -1.0686883 0.6000855 2.0167465 -1.4537407 1.5224125 2.2776017 0.28845727 1.9310714
seeds -0.60833985 2.7953959 -1.6362044 -0.05346774 0.7659382 -0.37768203 1.1438441 1.3985882 -0.55859953 -0.35034102
spinach -0.93612057 2.211971 -0.003842491 0.3288598 1.5442626 -0.3458883 0.7198685 -0.42039713 0.75249106 1.0123271
two 1.3440235 0.5992011 -1.8996159 -1.0034705 -0.55678767 0.14039207 -0.54091275 -1.5082171 -0.07857006 1.1130848
may 3.3749433 1.7918777 -1.9848441 0.23559818 -2.763061 -0.5210778 -0.6842651 -0.04255325 -0.12558462 1.2125168
occasionally 0.6292837 -1.2241153 0.2490499 -0.11412105 0.6513054 -1.6819992 0.5251701 1.6207739 2.4443164 3.3148952
overnight 2.045139 -1.1578193 -1.385921 -1.2577486 -0.42346117 -1.3689456 -2.8496668 -2.0434582 2.669064 1.98154
beans -0.38545677 1.944971 -0.45559245 1.2607152 1.0875939 -1.6939276 0.9466645 0.17786175 2.2440228 0.472768
skin 0.442669 1.3468444 -1.8735443 -0.27425647 -1.3478557 1.5809418 0.057725538 -1.1387286 0.13911895 2.0073717
clean -1.141814 1.5906564 -1.6029786 0.5321086 0.6551614 0.41890556 -1.2111996 -2.6512792 1.1654078 1.3193464
soak 0.8126162 0.8211525 -1.0847034 1.3384401 0.5368684 -0.3258426 -0.5269829 -2.29487 1.4048886 1.4369363
bread 0.91678613 1.2864498 -2.6783977 -1.3039881 0.7067876 -0.14321207 2.1104286 -0.4654392 -1.4370266 0.10024208
steak 1.0450996 0.4856901 -2.4814665 -1.8423498 -1.0738118 0.39710948 0.6078066 -0.65254253 -0.5387247 0.9362869
till 0.1818883 -0.46723804 -0.13715094 -0.33286864 0.22186625 -1.3481338 1.6235719 2.4335265 1.9553274 2.2539234
spray -1.4280524 -0.9483014 -3.700321 -1.7141892 1.3283814 0.56249166 0.97814643 -0.92488796 -2.769434 1.9829946
begins -2.251389 -0.5347284 -1.5862441 0.6388686 0.5111589 -1.1699663 -2.3231819 1.6571158 -0.04703349 2.4079156
black -0.37856337 2.7214723 -0.7900533 -1.3345679 0.5161339 -2.4497788 1.8515587 2.0707135 0.9907724 -0.5619389
heavy -2.4407525 -0.842173 -0.86510724 -0.51475024 2.485749 -0.19488081 -0.86544424 0.24184592 0.30259055 1.3548441
room 1.9464842 -0.8521555 -1.1223478 -1.453364 -1.4167242 -1.5741626 -3.1277192 -1.0543878 2.8166013 2.6429207
uncovered -0.002819522 -1.3957148 -0.17594358 -0.9962069 0.45105147 -2.46241 -0.29186124 0.34004351 3.322445 2.3384385
get 2.547711 1.1319056 -2.3885906 0.8463638 -1.519965 -1.0138631 -0.9347922 0.63763183 -0.17730805 1.4643221
rack -0.21559164 -1.6331335 -3.506413 -1.1034746 -0.114779115 1.2164783 -1.011397 -1.7905136 0.06518519 1.8101697
basil -0.40749645 1.437365 -0.5673242 -1.8007543 2.027892 -1.5216537 2.8787441 1.7223101 0.37671804 0.09979002
chop -0.073133625 2.9075394 -2.189428 0.8340871 1.8676013 0.5622736 0.69611114 2.0989451 -0.9993814 0.5400897
peanut -0.06249677 0.95512545 -0.35453743 -0.10319056 3.3819704 0.7330128 -0.8553555 1.733619 -2.5586584 2.6207402
after 2.0884702 0.07254291 -1.3322049 -0.57763124 -1.2800826 -0.3399397 0.18818355 -0.7279432 0.62071043 1.8343191
slowly -0.7277764 1.0110974 1.1329718 -0.3459352 1.6176255 -1.1355231 -0.5965605 1.3976886 -0.2450521 1.9622084
same -0.7959154 0.33202514 -1.1356003 1.0541463 0.16401227 0.37319693 -0.6481703 -0.05869539 -0.88282746 2.1679695
degrees 0.5060602 -2.4124432 -2.4388547 -1.8780042 -0.21699114 -0.44472182 -1.6377561 -0.2926539 0.65535474 1.976773
shell 0.5771399 1.2786788 -1.3715447 -0.85359573 -0.3361344 1.6486902 0.107390665 -1.4663877 0.15764448 2.0466657
want 2.3140347 1.7711718 -2.076458 0.11489711 -2.0230055 -1.6527823 -1.0704875 0.59073883 -0.26882377 1.193
white -0.5306275 1.5720191 0.12018908 -0.49745303 0.46187067 -1.4081774 1.1086223 1.2609409 0.6723606 0.8295453
separate -0.20312814 1.7568856 -1.0764247 -0.32782516 1.4929979 1.3418143 -1.7957922 -1.2323278 -0.51534843 0.870133
miso -0.8183655 1.5608844 0.1549198 -1.1703714 1.0990431 -1.0107728 -0.83211094 2.2190435 -0.9553471 1.1381916
carefully 0.21249883 0.42476875 -1.9793761 -0.35675684 -0.58368695 1.4164829 -0.6667626 -0.902502 0.36990857 1.6367109
tbsp -1.943094 0.35112876 -0.43643954 -0.15180238 1.8736839 -1.3234351 -0.26037627 0.8450555 -1.3807144 1.5244355
foil 1.130735 -1.1453707 -3.5383158 -2.228934 -0.38293836 0.7691373 -0.9820271 -1.8210005 -0.045299202 1.2227552
yogurt -0.011798106 1.9739475 0.5775683 -1.2019913 1.8289201 -1.6464278 -0.11010857 0.7513143 0.25061142 0.35897878
seasoning -0.1503661 2.541328 0.14429942 -2.2738576 1.1879293 -1.8176616 1.1988096 0.3780064 0.7856377 -0.5197108
according 0.59069395 1.6351385 -0.97727907 0.555026 1.3755196 -0.7579653 -0.32295373 -2.972447 3.4144578 0.5071387
coriander -0.8542845 2.3404803 -1.9237794 -0.27585414 1.8834938 -2.9501865 2.3802612 2.4134443 0.88491637 -0.15853359
longer 2.095848 -0.78522366 -0.691034 0.79444236 -1.4942087 -1.6343611 -0.32628667 0.56386864 2.3825507 2.6554968
knife 1.0909287 1.6382247 -3.4973164 -0.5318905 1.0980064 1.5685275 -1.848266 -1.6486192 -0.60876226 0.29122177
stand -0.28117073 -0.15390803 0.4032646 -0.8672379 -0.49288976 -1.5651107 -0.596938 -0.87182516 2.1329474 1.9671035
transfer -0.35646415 -0.02457652 -0.6977815 -1.4888848 0.89461243 -0.35558438 -0.39692864 -1.2687267 0.9078661 0.526582
under 0.46238047 1.326612 -0.8023976 0.4210658 0.23685655 0.40520167 -1.1352693 -2.5199976 1.5166765 2.0086164
bean -0.3188018 2.4764678 -0.72698987 -0.48398435 1.366281 0.4486733 1.218102 0.5392201 -0.5730986 0.4038791
first 0.96772414 1.2071164 0.33125156 -1.4979928 1.225722 -0.5266969 -1.6173626 -0.84686553 -0.35620344 1.7693031
color 1.7914265 0.8276613 -1.180682 0.6070401 1.207203 0.5329817 0.13565049 1.3431865 -2.4141796 2.5705364
around 0.3865867 -0.14337584 -1.4396043 -0.21301119 0.0014557738 0.033865146 -0.4787289 -0.8515044 -0.19115068 1.7666862
package 0.44117457 1.3694519 -1.0274261 0.7363767 0.7647524 -0.10347426 -0.45416015 -3.2311785 3.1904275 0.95225394
again -0.2979318 1.2932386 -0.32668832 -1.1258577 -0.07840424 -0.17332119 -0.12797439 -1.3314775 0.97217786 1.4686815
least 2.0961313 -0.55062705 -1.057867 -2.0591657 -0.7916664 -2.1239743 -2.8907552 -1.5882407 2.5547194 2.4109466
swirl -2.2849028 0.05024108 -2.0549383 0.49871588 0.8321327 -1.2367289 -0.433764 0.080022104 -2.463585 4.1796894
refrigerator 1.4947209 -1.1043274 -0.82054406 -0.51998943 0.17450376 -0.6620278 -2.5143814 -1.2449661 1.53026 1.9065249
much 1.247556 3.8230717 -1.8449173 -0.7708081 -2.2328274 -0.51147705 -2.3428736 -1.2360213 1.5552998 1.2098747
peel -0.6228358 2.6697679 -1.1746833 -0.0034341093 0.4318326 0.55132186 0.1339567 0.46144328 0.7910255 0.28865716
burn 1.999939 1.5891213 -4.3186636 2.0005672 -1.3797638 -0.84874237 -0.50064486 0.32428998 -0.2555806 1.6033436
strips 0.39874834 2.7340765 -0.82073885 -1.1907414 2.1900854 1.6598016 -0.71704024 -0.4153857 -0.73127115 0.50180036
salmon -0.2826231 -0.29896528 -1.7145703 -2.0864255 0.06502643 -0.41357237 0.90853727 -1.0296112 -0.12376333 0.8678194
process 1.9066633 2.0148199 0.021643383 0.36675373 0.76918864 -0.88120073 0.24480763 0.9427779 -1.282163 1.5456853
chill 1.8504721 0.6363214 0.53146917 -1.8287988 -0.42898825 -1.0361745 -1.0373765 -1.0149221 1.9316001 1.5290014
melted 0.3717306 -1.0171949 0.82507956 -1.1257463 0.8061573 -0.44431654 1.1641088 2.006432 -0.4947764 2.7997847
fork 0.7048868 1.1324805 -0.8767156 -0.9130902 0.26620862 -0.9719655 -0.9109876 -0.50060207 -0.32034883 0.024633005
lower -2.5079021 -1.3768573 -1.217248 -0.036744032 0.22584388 -0.95990807 -0.69888896 -0.10642133 2.5282032 2.1945264
times 1.7716182 1.1698623 0.4508698 0.3848384 0.47699586 -0.78824073 -0.113284454 -0.87416667 0.08428664 1.7308786
plastic 0.914694 0.22115652 -1.6743846 -2.7508535 1.3786643 0.57437074 -1.4498858 -3.190884 0.21101202 0.60831445
coconut -1.0573012 2.0195675 0.9172216 -0.54073834 1.0392852 -2.294497 -1.324235 0.9109564 1.3314804 1.0397832
ground -0.68452424 1.7976532 -0.28417358 -0.4323725 1.6936603 -0.6935559 1.1568447 2.1312935 0.060921963 1.0789938
turmeric -1.8948165 1.5261184 -1.6581994 -0.19296111 2.2799113 -3.2182367 1.6659635 2.4452863 1.1176246 0.020804733
cayenne -1.2698114 2.0773644 -1.0477679 -1.2206699 1.0728848 -3.0614443 1.5641047 2.1252682 0.9160167 -0.26352885
broccoli -0.7416197 -0.16957624 -0.46419153 1.0641813 0.5573969 -0.78099924 -0.14262739 0.13485622 1.0361933 1.8291111
thoroughly -0.0752103 0.8437318 0.59088355 -1.4487821 1.6159208 0.05958883 0.34344923 0.8997815 0.48872754 1.3101256
towel -0.54382926 0.33862546 -2.1146026 -1.5127774 2.3155956 0.7420852 -1.1870506 -3.5289116 0.92108196 0.4026461
thickened 0.8050916 -0.39410454 0.23053534 -0.067117184 -0.17286523 -1.3802922 1.0014586 2.2251396 1.7905334 2.122142
mustard -0.34168682 2.0901206 -0.5375615 -1.506954 1.871947 -0.76534873 0.10550997 2.1649117 -1.2713579 0.54938567
hands 0.9237015 2.570805 -1.482611 -1.3948675 0.69095796 -0.30693805 -1.4135922 -2.913105 0.42187506 0.27525708
center 0.7404187 0.14155714 -1.1586814 -1.3940994 0.062288977 0.5173087 -0.25748932 -1.8522363 -0.6288307 2.064792
honey -0.75158274 2.4799714 -0.25377798 -2.196376 2.5746303 -0.741758 -0.70335925 2.1491787 -0.8817261 0.23135847
reserve -0.71853995 1.8929162 0.3617943 -0.6060378 0.23485704 0.12672226 -0.1573165 -0.67625624 -0.074254155 1.7129934
no 1.7364326 -0.31077757 -1.3735054 0.76058704 -1.5861301 -0.77798724 -0.22649042 0.46733037 1.7431521 2.2235618
only 0.7053923 1.3403136 -0.6446849 0.7011579 -0.53855777 -0.7080195 -0.34556124 -0.98578995 -1.1972607 2.2065094
prepare 1.0748262 0.97817147 -0.75776166 -1.025957 -0.29399738 -0.008353296 -1.6036339 -0.6722983 0.2749446 1.140245
drizzle -0.6810345 1.3237977 -1.4217621 -1.9242691 1.3197094 -1.4639349 1.2759569 0.23735467 -2.5588477 0.5920088
repeat 1.6083924 1.0990313 0.3304409 -0.64180696 0.5575584 -0.30508474 -0.14323224 -1.6432918 0.11070092 2.0627592
frozen 2.0289133 0.8866111 -1.6005207 -0.10247588 -0.2709403 0.17321473 -0.40918797 -0.3390035 1.008106 1.1261629
needed -0.19936214 1.5681201 -0.8109298 -0.27139452 -0.9201696 -0.74929637 -0.519176 0.46584374 1.4532323 -0.041180905
pink 0.7983449 -0.24509937 -0.6495132 0.6936565 -0.7031857 -0.90105253 1.1410815 0.982977 1.9557517 2.6023107
towels 0.045426384 1.0122017 -1.5835174 -0.73173827 1.270966 1.7265548 0.57123315 -2.976984 0.47260627 0.9142442
wash 0.36182418 1.9615515 -1.113892 -0.08234394 1.1095395 0.69666225 -0.668478 -1.8263212 1.0247482 1.1270889
teaspoon -0.954161 1.666104 -0.77810454 -1.4338963 0.7821828 -1.6130222 0.9021784 -0.17092162 -0.9736625 0.1856082
filling 0.68059814 1.1509036 -0.62904626 -1.9331653 1.273484 0.14903677 -0.7865802 -1.9285389 -1.2769115 1.1492022
microwave 0.20656441 -2.0903046 -1.2091693 -0.54617244 1.7319657 -0.7128365 -0.49742916 -1.2095679 0.22167382 1.5081186
masala -0.7040661 1.6321694 -0.82999706 -1.1790123 1.3991905 -3.2188203 2.3289113 2.4118414 0.8968687 0.0063666264
stockpot -2.3569584 -0.20097068 -1.9753795 -0.082175955 2.6273766 -0.6968523 -0.9697473 -0.9497051 -0.39209837 1.029718
squash 0.9886802 0.9027174 -2.0048792 -0.24803536 0.12603272 -0.5320432 -0.17010082 -0.8983055 -0.4502829 0.5266847
flakes -0.27468783 1.032796 -1.7769365 -0.1194346 0.08899853 -1.2518244 0.87616354 1.3814187 0.30104458 0.09281551
start 1.1483586 0.19710372 -1.690811 0.44275323 -0.84213305 -1.4578037 -0.042047933 0.67744654 0.2485806 0.7580646
clams 0.1433542 0.39103153 -0.5477283 0.2704882 -0.44831645 -0.73970556 0.17458332 -0.34237024 1.9460286 1.0572512
edges 1.2406064 0.1630007 -1.4271606 -0.3634878 -0.3144897 0.5387868 -0.630711 -0.46725842 -0.34160286 1.3230134
inches 0.18048652 -0.20680393 -1.651332 0.64071715 0.04298382 0.34106997 -1.1797048 -0.6912793 -0.46601608 2.2282841
reserved -0.7523621 1.582028 0.247655 -1.2051907 0.5976687 -0.8965892 0.42831653 -0.10946474 0.53978163 1.1634585
long 2.0722768 1.8175395 -1.8829566 0.0030561679 0.0038773324 0.0033303737 -0.90454406 -0.41547236 0.14166668 1.1813174
prevent 0.008291754 0.41189352 -1.5000875 -0.41759452 -0.39824238 0.34879375 -2.1808755 -0.7109056 1.0212522 0.93300587
sour 0.5084495 1.7817818 -0.5252519 -2.5858238 1.8802938 -0.4739697 1.8223674 1.0856863 0.35935017 0.48597762
still 1.634119 0.73752296 -1.8898917 1.127877 -0.84678644 -0.62763137 0.022043876 0.7063364 -0.07831472 1.5038623
flavor 1.3168024 1.64816 -1.3336107 -0.27903703 -0.6515635 -1.5219307 -0.44887638 0.24463345 -0.07895056 0.8238955
prawns -0.412693 1.3639547 -0.54398847 -0.47381043 0.9685676 0.12562214 0.8270495 0.17066656 0.14562634 1.1989787
heated 1.0071744 -0.91968465 -0.3058633 -0.86252373 0.33639657 0.029657822 1.5174248 1.5452846 1.5427116 2.2427962
surface 0.8424345 -0.07923215 -1.5974711 -0.6623964 -0.2756463 0.43725267 -0.47535983 -2.2343068 -0.41561803 1.8489087
softened 0.79501903 0.123291925 -0.25568175 1.129432 1.0575396 -0.91534513 0.9834692 2.2959504 0.13565297 1.6686735
enjoy 1.4598306 1.7728223 -1.5309805 -0.9124591 -0.1648777 -0.48845002 0.7759045 0.09565895 0.34139743 0.6764288
thyme -0.92535555 1.9514002 -1.1540887 -0.35492948 1.3730835 -2.3226411 1.4143264 2.1893833 1.1308546 -0.33990008
adding 0.58407027 0.93795836 0.05031747 0.07123447 -0.4575919 -1.7738134 -0.105893865 0.5384984 0.72789913 0.9821474
check 1.5548083 0.3152965 -1.5291 -0.9661358 -0.9386755 -0.91075015 0.16894373 -0.17688736 0.25057152 0.65959924
now 0.7263935 0.48540387 -0.5685402 0.66898626 -0.937526 -0.6977871 -0.012783649 0.7517037 0.9696333 1.4256905
cloves -1.2062514 2.0632918 -2.034703 0.011707435 1.7781886 -1.4257665 1.5729822 2.5550973 -0.33558965 -0.31812048
zucchini -0.043171503 1.6552935 -0.98136604 1.0258048 1.1838197 1.0666292 0.46359342 0.49202207 -0.47427446 1.6297388
blender 0.87111175 2.2360926 0.39402953 -0.20159562 2.2265809 -1.1754942 -1.3532732 0.16941516 -1.4006742 0.35626116
completely 1.2641253 0.43461606 0.2688533 -0.6586525 -0.4351798 -0.3260839 -0.7969128 -0.53802764 0.7813914 1.9897189
steam -0.124622725 -0.77564895 -1.1121932 0.9827736 0.25827643 -0.9869446 0.03881873 -0.073043756 1.5878084 1.2127539
recipe 2.0279007 1.6627221 -0.96785164 -0.8287062 -0.556431 -0.8361624 -1.0024865 -0.96043915 -0.23690669 1.539162
except -0.19134553 1.0973296 1.32601 -2.0713859 1.4785913 -0.55499697 0.10836556 0.19958031 -0.15985666 2.0136118
scallions -0.07320459 2.0652866 -0.8187062 -0.46726134 1.2802452 -0.67624956 1.7823355 1.5371144 -0.26632756 -0.23984094
rub -0.43445987 0.8736434 -1.2393806 -2.1605892 0.57699084 0.4539468 0.84061706 -0.31283662 -1.4410905 1.1112144
fold 0.10003959 0.55378747 -1.1855675 -1.8526253 0.74328685 0.25641617 0.62647504 -1.0260793 -0.4759522 1.0753057
next 0.83607817 1.0245812 0.03908184 -0.3725832 0.42883655 -0.6441437 -1.0609561 -0.51017237 -0.0056782854 1.0585907
bones -1.8318443 1.2627767 -1.2606107 0.30018067 0.80561143 -0.11236091 -0.8147737 -1.1622233 1.8921179 1.0018353
single 0.18294464 -1.1327248 -1.9126679 -2.0098186 1.9558059 0.8907819 0.5763691 -0.8915984 -1.010462 1.340116
vegetable -1.208788 0.8354259 -1.2659425 -0.26626164 1.331473 0.22180119 0.37370947 0.20294864 -1.0054494 1.3362087
leave 0.8901235 0.5314627 -1.618879 -0.3630581 -0.52557623 -0.4607134 -0.781629 -0.5763398 0.49958894 0.6680141
tortilla 1.0060947 0.43764648 -2.0575182 -1.6785673 0.5548884 0.64287835 1.2373308 -2.2233973 -0.473492 1.6992991
than 2.362377 0.588257 -1.7562671 0.570919 -1.2285165 -1.1590785 -0.9955772 -0.71726155 0.6690431 1.656302
seal 1.511351 1.3650223 -1.4853996 -2.4943783 0.9038846 0.5829005 -0.90492415 -1.6044247 -0.23756322 0.78717715
paprika -0.18117146 1.3395721 -1.1087649 -1.9561226 0.6750045 -1.8118873 2.0524838 0.9469754 0.4547417 -0.6821251
shells -0.023868576 0.65118885 -0.80929434 -0.54815876 0.31838864 0.23398922 -0.2558323 -0.62059546 0.784996 1.2824855
fat -0.9122462 0.87919194 -0.42171133 -0.112318136 -0.006233089 0.8373485 -0.6983766 -0.3704046 0.2560687 1.6927263
good 0.44045722 0.5890694 -1.0017678 -0.8570085 -0.1700275 -0.0065533645 -0.63185745 -0.9252022 -0.26446146 1.0839474
fully 0.7027463 -0.7125715 -0.20846605 0.1131205 1.1650603 0.031324133 -0.22609746 1.9827982 0.2533885 3.066644
cubes -0.7448027 0.83178204 -0.6959278 0.10155678 1.1156014 0.67630506 0.050293278 0.034715824 0.7236849 1.2588891
wings 0.36444378 -0.5055795 -0.7197539 -2.1464372 -0.008309548 0.68827826 0.79886323 -0.27400324 0.16180655 1.620462
tofu 0.84053224 0.49400678 -0.7424682 -0.32708383 0.1803707 -0.014980925 0.30896774 -0.66115886 0.6386096 1.7478288
squeeze 0.23452534 2.7081077 -0.7923176 -1.3895191 -0.03176582 0.26407465 -0.30294192 -1.6616493 0.52492756 0.24391624
piece 0.84441876 0.5531369 -2.0848308 -0.76777035 0.33457416 0.9683742 0.30443844 -2.4317772 -0.36735117 1.3064362
sliced 0.57685995 2.6700237 -1.3514507 -0.33156326 1.0615191 -0.10303758 1.5574412 1.0428706 0.04804182 0.5110063
onto 0.64450026 0.46768063 -2.2871673 -1.3875387 0.22884135 0.8307881 0.19425151 -1.6021931 0.06864776 1.0052563
approximately -0.010479629 0.20666917 -0.6243776 0.4100176 0.19970319 -0.6177452 -0.12740469 -0.39783585 1.4140865 1.7147839
fragrant 0.909955 0.33376807 -0.4366712 0.9647333 0.64792085 -1.3430808 0.69107777 1.8452305 0.4500917 2.066333
garam -0.28647703 1.4279915 -0.7913032 -0.8211789 1.0744306 -2.8307076 2.1241248 2.3168957 1.1137147 0.11813811
along -0.20520113 1.4121943 -1.0429727 -0.716191 1.3218629 -0.5997468 0.8070967 -0.1171433 -0.7187104 0.066921614
size 1.0829095 0.6906528 -1.2339993 -0.6578515 0.34584895 0.9895558 -0.33015826 -1.372816 -0.3677023 1.7143215
pat 0.6641263 1.518072 -0.86305165 -0.8881536 1.7436785 1.6514808 -0.13376892 -2.0588355 1.0479097 1.3980602
parmesan 1.1268014 1.2342103 -0.09742108 -2.4357326 1.7171725 -0.8809441 2.492291 0.8180606 -0.015656693 0.71508694
need 2.3099113 1.481478 -1.7265911 0.4547523 -1.6193697 -1.260055 -0.8636058 -0.40487647 0.37764186 0.9427477
brush 0.098300256 0.07092223 -2.6416025 -1.249329 0.26803145 -0.15389597 1.0252597 -1.1870463 -1.8427906 1.1574149
tortillas 0.9573537 0.2709347 -1.5457946 -0.55207235 -0.014518268 0.2879627 0.59847456 -0.69693625 -0.6866752 1.1888186
rolls 1.3535835 0.24254118 -1.7016739 -0.16931401 -0.13117118 0.25412935 -0.2377975 0.0986377 -0.727528 1.8006457
broil 0.28508583 -1.2429597 -2.3419354 0.18319513 0.36985335 -0.22182828 -0.04261198 1.0131416 0.34514478 0.98936135
lengthwise 0.2002492 3.0697663 -2.7316065 -0.5334045 1.5121125 1.2773223 0.31252545 -0.32536098 -0.9726182 0.25855678
arrange 0.24128172 0.5525277 -1.3080374 -1.3083464 1.0661407 0.58512634 0.31191033 -0.7623374 -0.08547965 0.737411
lay 0.51913214 0.03773646 -2.167273 -1.6762223 0.5209866 0.7650501 -0.6121034 -1.9799947 -0.4003225 0.5635629
dipping 0.6743545 1.7983102 -0.1743838 -1.1730647 0.21921396 0.16054486 -0.2793108 0.29132167 -0.71765727 0.60056525
possible 0.97653544 3.2373085 -1.9455602 -0.85609686 -0.55537784 0.030725144 -1.8883067 -0.6103278 1.7112249 0.84835815
per 1.2476386 -0.89722985 -1.8171201 0.15620384 -0.8926655 0.24452116 1.3098818 -0.7704896 0.7361223 2.402654
mussels 0.6072005 0.38505316 -0.87635493 0.61821973 -0.652964 -0.84082645 0.14958397 -0.26597106 1.7134702 1.9287086
note 2.1225579 0.9286151 -1.07216 -0.5218789 -0.79690856 -0.6645146 -0.53522015 0.41647294 0.8049504 1.3519616
strain -0.81310993 0.76168615 -0.48752868 -0.4326496 -0.49568778 -0.45608243 -0.19378571 -0.72130114 2.418898 1.2499764
casserole -0.09532826 -0.24983093 -1.5706627 -2.0400093 1.008732 0.7404255 -0.31314492 -0.5563207 -0.6282315 1.4947364
directions 0.5418205 1.1952093 -0.8695751 0.10378174 0.8849469 0.056789353 -0.82276666 -2.3509245 1.4813105 1.418888
chickpeas -0.36813363 0.9795593 -0.16972992 -0.20160417 0.95099854 -1.1467278 0.31285203 0.514064 0.7561813 0.67624843
mixing 0.018231096 1.8891562 0.123231605 -1.3291993 2.1396234 -0.48962525 -0.8377719 0.4182109 -0.2653205 0.62985605
freeze 1.9204296 1.0084603 -1.5733775 -1.3833275 0.38455725 0.25933543 -0.94203824 -1.1119888 0.4164313 0.7300498
does 2.8407145 1.7419059 -4.000742 0.88092035 -0.54652977 -0.07055009 -1.2012382 0.21421115 -0.7537337 2.41584
adjust 0.6250885 1.5853504 -0.8240735 -1.8122592 -1.3595484 -1.8080314 0.34957603 0.6945898 1.5010974 0.108493775
juices 0.6200208 0.75798976 -1.2621626 0.14848168 -0.19056986 -0.11660866 -0.33069244 -0.34216252 0.49757767 0.7622939
lentils -0.31961724 0.61887753 -0.4412715 1.0310267 0.46183872 -1.3474437 0.30761564 0.05080124 1.9575182 1.184505
bubble -1.2563497 -0.10622374 -1.6771241 0.057078786 0.77318794 -1.0006324 -2.5664034 0.8119838 -0.5206242 2.1284425
meanwhile -1.1583203 -0.5259527 -0.47593877 -0.43146256 0.9080908 -0.30569187 -0.87402195 -0.9198925 0.7974463 0.82221776
squid -0.22552173 0.7273954 -1.3570215 -0.1874492 0.9125295 0.6947759 0.0034953107 -0.49835762 0.61437595 1.1081765
also 1.8726474 1.9767145 -1.3109857 -0.38856977 -0.5581965 -0.59641594 -0.22716841 -0.2915041 -0.0044327285 0.4826563
finely 0.5683776 2.412882 -0.92892224 0.81506777 1.7952566 -0.09981354 0.9439537 2.2139845 -0.7347048 1.0006156
sharp 0.72702223 1.6195718 -2.7584867 -0.070048355 0.9819659 0.839695 -0.93189263 -1.0408036 -0.5074263 0.39264762
close 1.3144743 1.4180055 -2.929161 0.32668152 -0.3967107 -0.28605348 -0.6144337 -0.6824398 0.17151757 0.73776525
breasts -0.31017298 0.16182177 -1.2402914 -0.5469158 0.051442266 0.31423426 1.1533592 -0.4645679 0.10488227 1.7656044
sweet 1.1099062 1.495506 -0.8833237 -0.8578849 0.30726174 -0.50639987 0.5383422 0.9643077 -0.53233844 0.6391763
my 1.8101315 1.3104882 -2.746239 0.09962728 -0.46864116 -0.6664211 -1.1816097 -0.32748514 0.47150373 0.8179915
corn -0.22150044 1.8303263 -0.9312672 -0.19318306 0.5615977 -1.2175173 0.41613305 0.97407395 0.3935894 0.4708442
way 1.6651659 0.4764875 -1.1454631 -0.4557033 -1.0370072 0.3996123 -0.20060399 -0.24049321 0.10955302 2.1244607
inside 0.41845524 1.9921288 -1.8953179 -1.6079155 0.39688388 -0.15576099 0.46611023 -1.1611518 0.11113838 0.64804107
ribs -0.013573984 -0.23075771 -1.3384827 -1.1941543 -0.12090066 0.18357131 0.3185023 -0.81091774 0.18846448 1.2283887
fridge 1.3356318 -0.14622137 -1.1627302 -1.0367043 -0.043886412 -0.47390574 -1.3004141 -1.454854 0.84943146 1.1588093
see 1.4267921 1.6799265 -1.94996 -0.096046284 -0.37808213 -0.2747087 -0.6737611 -0.25054458 0.36027983 0.364316
point 1.933662 0.54682726 -0.89700896 -1.0957835 -1.0282047 -0.92465514 -1.4047133 -0.4089904 1.4698375 1.3940544
ladle 0.016411452 1.3997734 -0.8184494 -0.7725707 0.5513028 -0.31585717 0.27576545 -0.4453453 0.5301821 0.75811315
sausage 0.24188687 -0.09859285 -0.8093452 -0.05221725 -0.024575086 -0.11745861 0.55121475 0.7153086 0.59211034 1.7148426
meantime -0.7607073 0.6798577 0.31799617 0.2078478 1.0298826 -1.0694249 -1.5200684 -0.9966069 1.077999 0.77062726
flip 1.0381048 -0.83482975 -1.1990303 -0.058127824 -0.015239879 -0.6328883 0.85843617 -0.02612669 0.8965739 1.5616409
shallots -0.5557314 0.49104333 -1.0178552 0.82443476 1.1825527 -1.0313863 0.7420251 1.603775 -0.10733497 1.1513205
dumplings 0.6201779 0.5002095 -2.0862827 0.4656338 -0.54256433 0.33329642 -0.74221045 -0.724277 0.13435575 1.8852416
form 0.62721 0.9235524 -0.91191 -0.7058418 0.8695033 0.1918155 -1.5264351 -0.44184664 -0.3423659 1.6243755
instructions 0.8898538 0.99143666 -1.2690232 -0.015044913 0.55218095 -0.40420187 -0.04501338 -1.8108882 1.700902 0.554267
platter 0.22265953 0.9239936 -1.6447904 -1.9278284 0.41417158 -0.555195 1.3569608 -1.4059198 0.17186673 0.29337963
colander 0.3339017 1.3770907 -0.5106497 0.36566338 1.9253951 0.28360495 -0.27527156 -2.1249814 1.2118443 0.6891522
stove -0.6274025 -0.22893503 -1.0473075 -0.54154557 0.5220182 0.03373414 -0.20761035 -0.1414414 0.08336753 1.5560191
chilies 0.36499104 1.6784294 -1.1668185 0.35865352 0.9874534 -0.4901598 0.5966134 1.1823125 0.3343884 0.5268715
frequently -0.0058275512 -0.60606784 -0.32277977 0.622263 0.74159014 -1.6612 0.42644423 1.1715429 1.2978959 1.3752815
every 1.492198 -1.2143492 -1.3701992 0.73416823 0.39632788 -1.5973895 -0.17674355 1.1364914 1.483301 2.4616013
bowls 0.16480121 1.3502368 -0.830754 -1.2041379 0.6743188 -0.4096289 0.89848584 -0.46312317 0.67885673 0.4118651
turning 0.58110946 -1.3968711 -0.9969594 0.31232196 -0.6793792 -0.64584905 0.24700715 0.7715927 1.2656518 2.475044
wrapper 0.35107994 0.63001287 -1.919933 -1.4885434 0.3427055 0.5149816 -0.37237298 -1.9915968 -1.2672493 1.4350085
several 1.0906217 0.4416967 -0.16124763 -0.6387064 0.5258652 -0.3190949 -0.53078455 -0.41400936 0.72966087 1.1683872
puree 0.040126722 1.3617449 -0.69663525 -0.10872965 0.8693991 -1.0726078 -0.6355699 0.99912304 -0.097171105 0.67741203
salted -1.0037965 1.2061689 -0.7105239 1.4800242 0.7764582 -1.0117182 0.11547659 -1.9016237 1.4545789 1.2268248
blended 0.90184575 0.8930087 0.79425013 -0.8442418 1.3030039 -0.57647413 -0.4938885 1.0683876 0.88565254 1.4710131
eggplant 0.06332593 0.8215341 -0.71015257 -0.531759 0.4455107 0.57215923 0.06956377 0.028093386 -0.81579095 1.8763013
brussels 0.28420943 0.95974135 -2.7838793 -1.4403888 -0.57410216 0.30607128 1.4537736 0.35542756 -1.1622131 1.187909
consistency 1.5135734 1.8706169 -0.71365285 -0.60774237 -0.9551602 -1.586067 0.10254392 0.92575115 0.22648533 0.27646858
leaving 0.13247406 0.64500564 -1.2509815 -0.53220165 -0.19158693 0.8746244 -0.24074435 -0.9184716 0.31487188 1.5783168
lettuce 0.5634951 1.6961501 -1.4650627 -1.3324876 0.79096764 -0.1776393 1.4202611 -0.39338025 -0.07354883 -0.2417714
flavors 0.68903804 0.36894232 -0.16610393 -0.7650276 0.04080507 -1.3602636 -0.38370755 0.5703429 0.8423822 0.92513156
deep -0.4753085 -0.423235 -1.4321489 -0.07508707 1.4031444 0.019136198 -0.9874673 -0.02626665 -0.7776424 1.5900813
whole 0.45204186 1.559286 -1.649619 -0.054954376 0.36454338 -0.19866844 -0.0049170204 0.08538308 0.7639168 0.6106307
step 1.410869 1.2705901 -1.502752 -0.7910188 -0.23238236 -0.3437114 -0.79041976 -0.53688586 0.33539346 1.0424975
bell -0.8010115 1.4724567 -1.8818282 0.71382695 1.0289062 -1.0921708 1.4544955 1.603862 -0.015816022 0.43612507
mayonnaise 0.100631334 1.6642486 0.17995323 -1.5443962 1.5737643 -0.9481972 0.2437303 0.6133238 0.31794655 0.36636806
cooker -0.3275466 0.40108955 -1.1918226 -0.60155696 0.10777101 -0.63102096 -0.49485138 -0.9285158 0.79857 0.7647658
crisp 1.0323623 0.32800326 -1.2008497 0.8103697 -0.4686109 -0.48102194 0.84084845 1.5745668 0.74996865 1.9767904
wooden 0.3842359 0.9144263 -0.63964003 -0.59585553 2.0705245 -1.2585101 -3.251847 -0.6113956 -0.90398556 1.3943943
end 1.06475 0.97252 -1.7333437 -0.9662823 -0.75463516 -0.25051916 -0.14740568 -1.0389934 -0.121332474 1.4216679
thickens 0.040174376 0.051892515 0.38630572 -0.4606958 0.118818976 -0.8793203 -0.06827754 0.9419251 1.1856692 1.3366776
raw 0.21867865 1.9047396 -1.1294559 0.13281496 0.8580308 0.4699216 0.391054 0.5861616 0.1738562 1.3457556
cinnamon -0.7301751 1.9888725 -1.6255661 0.2006341 1.2502649 -1.0906165 0.65268254 2.0981603 0.19991648 0.11851733
tightly 1.101099 0.017784955 -1.1363059 -1.2568625 -0.0038896988 0.14794058 -0.58207285 -1.3805029 0.71400404 1.316235
without 0.74308354 1.0469245 -1.5971855 -0.3260968 -0.86570483 -0.13185418 -0.6728595 0.022743914 0.50222415 1.1300185
minced -0.36563203 1.6172724 -0.4490558 -0.075482264 1.4668502 -0.52595365 0.45474622 0.98584485 -0.4952595 0.58873165
opaque 1.1850566 0.63184786 -0.8812122 0.7441647 -0.2728695 -0.47086617 0.57691395 0.546174 1.1872232 2.067933
carrot -0.055651557 1.4685498 -1.3103721 -0.14139977 1.725628 0.29175568 0.33659878 0.5956516 -0.121684566 0.42534104
tsp -0.6977791 1.5920054 -0.3424985 -0.6462086 0.76857257 -1.1122195 0.16220543 0.35173488 -0.6934416 0.08888145
bubbly 0.40552878 -0.29678226 0.12354045 -0.34246328 0.08465577 -1.1013644 -0.09783089 1.2105644 0.7769362 1.5759301
crabmeat 0.069510475 0.7657027 -0.34214452 -0.5305249 1.4049685 -0.3608346 0.6537244 0.4231164 0.8482531 0.96491444
optional -0.040497713 0.61915773 -1.8267702 -0.54489136 0.38904312 0.07467101 0.29599166 -0.16906618 0.27127826 -0.0024957852
ice -0.4430898 2.0377483 -0.1817561 0.770739 0.9786253 0.21169703 -0.5789265 -1.0934191 0.29132077 1.037337
broiler -0.27002776 -1.3818631 -1.8758801 -0.96514434 -0.04021499 0.5422194 -0.3778743 -0.43617082 0.25248113 1.6531929
salsa 0.43635154 1.166061 -0.93067235 -1.825018 0.73397267 -0.6852228 1.3817556 0.21778989 0.42370465 0.41544566
incorporated -0.19753423 -0.9243676 -0.19753565 -0.12277518 1.2873 0.18966225 -0.7109633 1.5902504 -0.028379807 2.5172305
easy 0.46541315 1.0398295 -0.983138 -0.6267187 0.008787098 -0.21356648 -0.42349276 0.24694486 -0.09988723 0.9624852
simmering -0.69059443 0.02743202 -0.64351684 0.3293583 -0.04362317 -1.3901372 -0.07677442 0.30029115 1.620198 1.2502991
between 0.9374694 1.307174 -2.1300678 -1.4633504 0.2348505 0.6629525 -0.02449864 -1.3178554 -0.035622157 1.2707093
running 0.7150793 2.1733077 -0.009580099 0.40096834 0.99686104 -0.044325 -0.35521832 -1.221558 -0.3201744 1.776021
lobster -0.06359372 0.57606184 -0.27450573 -0.1209774 0.59493035 -0.39482772 0.51853347 -0.1302483 0.7987729 1.4110261
really 1.4874405 1.0912418 -1.945957 -0.31528255 -0.4197458 -0.18276845 -0.66792846 -0.0335408 -0.18549995 1.065931
wedges 0.39433673 2.3500938 -1.4184934 -1.2144508 0.33552468 -0.5231856 1.5128529 0.058411725 0.32206395 -0.30092448
translucent 0.25661513 0.30845338 -0.9386016 1.1845093 0.6056094 -1.1918781 0.982258 1.3515388 0.18973015 1.2491274
skewers 0.7430567 0.70790654 -1.7134885 -1.2173781 0.26902437 0.557894 -0.01940757 -1.1936965 0.14180987 1.1810374
line 0.15228793 0.42832583 -2.3032167 -1.5795534 0.8714314 0.31629565 -0.45963648 -1.5192801 0.0049726483 0.6651835
chile -1.202391 2.1348615 -1.2840381 -0.7122589 0.62180185 -1.236925 0.76623285 1.5181854 0.12216767 -0.2758009
chives -0.13861136 1.4159738 -0.748357 -0.74698657 0.8401735 -0.6322817 0.81532127 0.49637365 -0.22135396 0.29829141
bamboo 0.32578716 1.7630249 -1.2958516 0.29243842 1.3136905 -0.71989095 0.51198703 0.52004313 0.15530352 0.47131103
dutch -1.5741165 -1.5816387 -1.8660445 -0.575535 0.546496 1.0390247 -0.9004452 0.70350933 -0.45413753 0.8410809
turned 1.9343346 0.6132211 -1.4853944 0.9260687 1.8160642 0.45099854 -0.06679886 0.9420976 -1.2113676 2.4605896
run 0.7716899 1.0067292 -1.476084 0.16090387 -0.24220188 0.048521727 -1.1283056 -0.58209616 0.2760881 1.0001158
even 2.025231 1.0752999 -1.88433 -0.34313503 -0.18171372 -0.16104384 -0.8994764 -0.67755455 0.29754275 1.5977368
nuts 0.0033146644 0.80515647 -1.3313158 -0.3976401 -0.07828424 -0.03831868 0.3440826 0.13398613 0.47264114 0.7663985
how 1.9702809 0.8857228 -1.9466136 -0.5568727 -0.69135535 -0.17178372 -0.30396894 -0.64301765 0.42966184 0.8401477
last 0.53326494 0.55059224 -0.44525197 -0.3681964 -0.099059634 -1.0264306 -0.19536531 -0.4571841 -0.048731513 1.1988078
knead 0.9570755 -0.080080785 -0.9698576 -1.0346688 0.29598987 0.1457193 -0.59908843 -0.8576695 0.55541205 1.0528498
begin 0.94694644 0.019929903 -1.4885868 0.548315 -0.7954116 -0.83524764 0.18278189 0.77141947 0.063487545 0.56795794
stems 0.25208494 0.8618272 -1.2447989 -0.45331463 -0.35396674 0.33379322 -0.20409109 -0.38363242 0.33011377 0.83570623
wonton 0.260132 0.60226136 -1.0954868 -1.2094407 0.4480294 0.1713198 -0.3893831 -1.1240528 -0.93780124 1.0852681
its 0.9048964 0.87927145 -1.359043 -0.31166348 -0.76191795 -0.6015387 -0.2998606 0.31993026 0.13513072 1.2439803
become 0.88982296 0.17723736 -1.0363009 1.0822191 -0.5961845 -1.0238631 0.16232078 1.0644306 0.11800974 1.3176197
dissolved 0.17620717 0.77909327 1.0472479 -0.4599965 0.2431516 -0.7333452 -0.024104508 1.1902112 0.32297105 1.8755578
batter 0.6826371 1.1104566 -0.8469784 -0.4502472 0.62238044 0.4840147 -0.44047537 -0.41898555 -0.22163863 1.3651754
breast 0.13670902 0.51402193 -1.6734236 -0.3934937 -0.3888051 0.79622483 -0.08403969 -0.9062887 0.25026467 1.4039074
spaghetti 0.20738244 0.66445065 -1.275975 -0.07348638 0.5703074 -0.872999 -0.4560685 -0.9774617 0.38157275 0.3714274
break 0.37562573 0.6307428 -1.2497704 -0.50330514 0.9592821 0.4033416 -0.27298713 -0.27913284 0.45172763 0.8208516
slotted -0.3871007 0.9367743 -0.60999364 -0.6400032 -0.10957921 -0.10130411 -1.2807832 -1.2514212 0.5704526 1.210245
absorbed 0.69980675 0.32552415 0.32055333 0.24558873 -0.4462992 -0.5279527 -0.029968908 0.6473637 0.5067259 2.3968978
aromatics 0.24491961 0.42332757 -0.30793634 0.6419724 0.14447853 -0.34757856 0.08804142 1.01014 -0.15918297 1.5215728
kitchen 1.0375497 1.8660752 -1.9741539 -0.27570897 0.26541048 0.3389141 -0.26103655 -0.66068435 -0.45954305 0.90583116
hand 0.73304665 1.1423075 -0.96081895 -0.21261562 0.24278817 -0.22575091 -0.6370881 -0.39307827 -0.07954509 0.3939534
everything 0.44873556 1.0787661 -0.40928042 -1.1117015 0.53793246 -0.21572632 -0.7329483 -0.05018106 0.08010481 1.0324266
drained 0.23884442 1.0180883 -0.21589969 0.13981718 0.7626167 -0.5477158 0.30671352 0.045421552 0.7150072 0.6115945
dried 0.3520629 1.2856495 -0.6655864 0.7459878 0.47174802 -0.37830922 0.273404 -0.5796527 0.96884775 1.1974801
making 1.3217905 0.78939915 -0.76652265 0.15974522 0.17537053 0.7578155 -0.09413742 0.5561653 -1.3431906 1.0449451
outside -0.047108836 1.5068896 -1.6743371 -2.0013125 0.15764081 -0.28032696 0.95058703 -0.65675944 -0.3739952 -0.027540358
excess 0.45342955 1.5210053 -0.58155155 -0.10398894 -0.36006415 0.530916 -0.29852542 -0.9093956 1.0745301 1.4515917
ahead 1.8971429 0.6824986 -1.4235317 -0.6855941 -0.99927497 -0.11738001 -0.91254526 -0.7208851 0.5729883 1.2413049
flat 0.3961741 0.7945917 -1.7595007 -0.73201483 0.27774557 0.48821467 -0.22627221 -1.2479585 -0.74203503 1.1437151
keeping -0.20535001 0.57658327 -0.83580697 -0.8269463 0.20113517 -0.09077666 -0.1723245 -0.95348656 0.780561 1.9197775
edge -0.24950649 0.5191429 -1.6559293 -0.81803334 0.0932002 0.49977833 -0.455802 -1.5212526 -0.5698822 1.2149597
couple 0.16615294 0.045320936 -0.60069746 -0.067491345 0.13255338 -1.1860601 -0.42285994 -0.64746684 0.4577505 0.85393745
wipe -0.7019759 0.3758753 -0.99554217 -0.03192218 0.3048677 0.4860373 -1.0445545 -1.2178595 0.3072623 1.1010163
t 0.41204098 1.6888723 -0.9134371 -0.56791776 0.57788366 0.038507633 0.23665759 0.04156042 -0.3941386 0.8940157
cardamom -0.7677243 1.6502372 -0.8148229 -0.50948507 1.0829966 -0.87545246 0.30916786 1.3859856 0.24110618 0.13318305
soften 0.40361214 0.2503593 -1.1823146 0.23277761 0.67492753 -1.2173438 -0.060144454 0.18951747 0.6844565 0.77211845
oregano -0.45466685 1.2020981 -0.803913 -1.1114846 1.1404982 -1.6755669 0.9800988 1.3702242 0.74130374 -0.1628787
pulse 0.8349349 1.5372404 0.18276721 -0.029519187 1.2002764 -0.88128185 0.14372118 0.7455857 -0.32965812 1.1710124
veggies 1.1179165 0.29280058 -0.1430042 -0.08001841 0.29587957 -0.40954003 -0.028521143 0.9210936 0.4673636 1.5600768
less 1.0422491 1.3935789 -0.96778625 0.21313746 -0.036016498 -1.0962094 -0.47402394 -0.18184718 0.26941222 0.7606937
nicely 1.2703246 -0.4347386 -1.5586051 0.5273733 -0.47802365 -0.3052804 0.7076062 0.49902746 0.4543952 2.1046772
we 1.084494 1.813341 -1.4205521 -0.08461156 -0.7320313 -0.14615037 -1.0068899 -0.15922391 -0.47956967 0.72477007
old -0.09962778 1.7309421 -0.59049875 -1.0239158 0.18315792 -1.1971197 0.56089246 0.66373795 0.82245487 -0.11065563
tip 1.1226356 1.1393763 -1.4251735 -0.14701349 0.022539673 -0.153367 -0.58562535 -0.44572142 0.1343474 0.83447814
rolling -0.6290496 0.7859925 -1.3357087 -0.46097744 0.31783065 -0.5049671 -0.4165002 -1.5111583 1.0029242 0.67487276
sieve 0.084382094 0.26197118 -0.7027644 -0.65339965 1.1394908 0.23410884 -0.17434642 -1.2991471 1.0962982 1.0052162
their 0.61994666 1.1198549 -1.3761315 -0.49437854 0.10514888 -0.49209496 0.6179234 -0.22528644 0.26418513 0.44513905
cheesecloth -0.21859516 0.5458114 -0.90983087 -0.96307606 0.88016295 -0.3240931 -0.05113315 -1.408679 0.820241 0.8111625
clam -0.38580602 1.8655416 -0.15144746 -0.8422225 0.18017885 -1.8692703 0.23105596 0.69248086 1.0866344 0.19381824
grated 0.58008707 1.2774488 -0.30788916 -1.4099978 0.89167947 -0.9461316 1.1290036 0.36279544 -0.05893157 0.76768756
lemongrass -0.51871806 1.8182911 -0.31554657 -1.0500214 1.1031328 -1.2128433 0.622266 1.3493423 1.016581 -0.0062838243
cutting 0.9485381 1.2322481 -1.7191278 -0.8331074 -0.6947771 0.002153222 -0.25932568 -0.7272819 0.5407258 1.1485307
there 0.8356441 1.2371508 -0.66489285 0.37119326 -0.72576576 -0.6469274 -0.085933216 0.1569125 0.25594544 1.3661557
shake 0.22182073 0.25860712 -0.46736327 -0.5489638 0.97544855 0.041308213 -0.8418905 -0.2795967 0.09902919 0.9655098
grain 1.4126114 1.9291607 -1.2677159 -0.6806711 0.73434705 1.4617333 0.04727629 -0.13604617 -0.28574246 1.0712312
ball 0.7139695 1.201312 -1.1609524 -0.9685106 0.8152883 0.42027783 -1.1348993 -1.4660176 -0.09357959 0.8556806
leaf -0.336571 1.6802148 -0.8039259 -0.6033355 0.54991275 -1.0430158 0.63869184 1.2631629 0.927437 0.0824641
made 1.6455343 1.1285146 -2.0178416 -0.50136524 -0.7989246 -0.32740745 -0.9059912 -0.36843574 0.5485348 0.97673947
stay 1.2645873 1.5162654 -3.1964617 0.56180984 -0.20332673 -0.30730408 -0.48250887 -0.40655434 0.17037466 1.1890503
divide 0.61407214 1.0493625 -0.63796467 -1.14089 0.49651274 0.17643157 0.23356642 -0.6485106 0.30456018 0.8224212
pineapple -0.270996 1.6286716 -0.24779531 -0.61365926 0.7560796 -0.6129233 0.109884836 0.50100595 -0.019943897 0.76858175
toast 0.57948786 0.27456096 -1.584561 -0.5108804 0.074379355 -0.08258885 0.20306075 0.26944053 0.013271672 1.2270869
quickly 0.039343946 0.34244826 -0.927965 0.32704923 0.04836219 -0.5137213 -0.55678254 -0.096067645 0.9283972 0.9994341
lift -0.536101 0.5026752 -1.4825754 -0.25958312 -0.17442691 0.20679677 -0.39570087 -0.8647001 1.2486638 0.84303004
stick 0.6010609 0.7603504 -1.2090484 -0.2700271 0.30469438 -0.15681376 -0.5707146 0.2187596 0.094079025 0.725871
across 0.7960253 1.8307158 -1.036874 -0.73904353 1.0470726 1.5443819 0.29016638 -0.47094 -0.14608848 1.2262462
combined 0.67510134 0.4994256 0.36616272 -0.57983774 0.46629342 -0.45261115 0.00306108 1.0426078 0.43113056 0.9716052
nice 0.8171205 0.39268154 -1.1651056 -0.1071025 -0.28780958 -0.10015972 -0.19587535 0.41649294 -0.3514645 1.4296747
roasting 0.17569467 0.08862871 -1.6227127 -0.97522765 0.4666248 0.2935566 -0.5888004 -0.66284823 -0.6870941 0.6694346
chunks 0.026765341 1.4042997 -0.8886232 -0.20698434 1.055332 0.09293245 0.27883658 0.33129567 -0.28030327 0.22964558
middle 0.159394 0.6014002 -1.502661 -1.0649941 -0.069126725 -0.09742259 -0.10864753 -0.32041347 0.0013246202 0.9622505
part 0.52024263 1.1430694 -0.9648559 0.010286057 0.19391675 -0.017359434 -0.7039455 -0.39146006 -0.2580903 0.70410144
sherry -0.66747177 0.42279673 -0.22359812 -0.48022506 0.68769306 -0.30418086 -0.10629743 0.077154666 0.7952584 1.0082166
added 1.3741393 1.4193705 -0.9720633 -0.14659111 -0.6569512 -0.8851422 -0.32728526 0.13948348 -0.21933661 1.1789598
quinoa 0.4100496 -0.15298764 -0.9920592 -0.8518043 0.38230616 0.05074298 0.3682558 0.095120385 0.40966827 1.1573431
freezer 1.1664479 0.7196763 -1.2581596 -1.1011834 1.0101694 0.15749149 -1.0855556 -1.2900771 -0.042228483 0.59453917
press 0.35037512 0.023325663 -1.2110108 -0.8944534 0.5649342 -0.012945736 0.072013214 -0.4899152 -0.42032447 1.3301316
coated 0.7944036 0.08589226 -0.1065617 -0.44464615 0.48143658 0.048597816 0.38745904 0.63356006 -0.5368171 1.4634993
cake 0.287092 0.29434717 -1.080702 -0.7176402 0.3123415 0.5974806 -0.6755579 -0.9788079 0.069264054 1.6091654
give 0.49119845 0.36860877 -0.6572706 -0.6084665 0.11885326 -0.14087242 -0.37039563 -0.34030017 0.012419758 0.88541573
bone 0.7503001 1.1484265 -1.9684283 -0.28375852 -0.9319478 0.15568556 -0.39984152 -0.2723713 0.70058745 1.4705427
shallow 0.5150221 0.6169908 -1.5573224 -1.2413768 0.97997314 0.5004799 -0.47930214 -0.29802462 -0.8017224 0.888131
left 0.586297 1.2486528 -0.9565721 -0.43620414 -0.23835757 -0.19720316 -0.095577605 -0.5183905 0.23390052 1.0796388
seasonings 0.26930913 0.98362756 -0.033433255 -0.9505578 0.6558982 -0.88055754 0.24659525 0.55541706 0.72522163 0.5965787
bok 0.89156103 0.7004373 -0.52888685 0.6507147 0.4002685 -0.13733366 0.24589503 0.662379 0.2803655 1.3164153
quart -0.9763098 0.13857332 -0.89159966 -0.26668623 1.2481625 0.04457078 -0.75501716 -0.5945943 -0.360331 0.841025
bright 1.2165707 1.1315104 -0.7850991 1.1323298 0.68361527 -0.41063443 0.66944635 1.4539243 -0.017405877 0.82442117
dice 0.26100484 1.3773589 -0.5969922 -0.114581086 1.0759705 0.44120827 -0.5323533 0.08504814 0.29202828 0.9477442
worcestershire -0.3953924 1.7287334 -0.5301515 -1.1420457 0.71917796 -0.7833939 0.10627859 0.947166 0.28943935 0.66094
nonstick -0.70583 -0.08876875 -1.8398124 -0.19515727 0.95439714 0.14598797 -0.1882273 -0.11174964 -0.84322405 1.0753983
zest -0.570403 1.4781033 -0.51119393 -1.2531492 0.2979801 -1.1332344 0.54820174 0.6473427 0.3877498 -0.19773367
oz 0.4592171 0.21546711 -1.397235 -0.48074657 0.23334143 -0.65802217 0.2723412 -0.727572 0.053536247 1.3863201
choy 0.86320734 0.80701566 -0.4278554 0.33087203 0.43133327 -0.0907076 0.35588223 0.85586673 0.21625449 1.364519
spice -0.4312179 1.3005116 -0.47505024 -0.73683524 0.7576486 -0.03373322 0.8578966 0.662215 0.2744599 0.75675464
briefly 0.3418056 1.0214992 0.15226431 -0.2868085 0.5472503 -0.5813391 0.008156894 0.098401 0.94471353 0.52930063
tea -0.29127342 0.77470475 -0.88068455 -0.6376756 0.5774965 0.09002684 -0.48348227 -0.9518255 0.387111 0.78837866
fine 0.16317214 1.1038089 -0.71967065 -0.39429206 0.03224854 0.050262105 -0.7004152 -0.24568783 0.2950626 0.84239537
during 0.79486716 -0.57628435 -1.2597966 0.5190339 -0.6187367 -0.60142964 -0.33866233 0.19431789 0.017192865 2.055589
crispy 0.8711607 0.20027854 -1.5929993 -0.08330848 -0.015082125 -0.18060581 0.41168 0.5784165 -0.08364831 1.4874821
day 1.1461883 0.5825936 -1.1929102 -0.4388232 -0.07027036 -0.40800023 -0.9112345 -0.54551214 0.37794077 0.61640483
necessary 0.18198071 1.0860604 -1.1402928 -0.20781627 -0.290466 -0.640666 -0.36116412 -0.05368106 0.8978734 0.3011657
often 0.25737467 0.060132407 -0.23974682 -0.06188071 0.30155948 -1.3364587 -0.07309836 0.80186224 0.89009744 1.2311215
min 0.6373046 -0.037386563 -0.97577333 -0.15757579 -0.2879599 -0.07311514 -0.33107325 -0.5619093 0.53259355 1.1228634
thicken 0.17667729 0.27885866 -0.37236166 -0.2915867 0.122868516 -0.7941368 -0.3938782 0.40963203 0.3333014 0.92022854
steaming 0.11191787 0.17779604 -1.2060806 0.5001038 -0.1961431 0.15751381 -0.8701928 -0.9336189 -0.013577414 0.7320537
safe 0.127469 -0.396498 -1.0362277 -0.69102585 0.9999054 0.11397692 -0.62515754 -0.48026392 0.19665232 1.2985976
grapes 0.45435178 0.6278373 -1.9763334 -0.5756993 -0.9841206 0.19912897 -0.37509194 -0.35944286 -0.117064625 1.3296429
reserving -0.33282015 1.16232 0.20717059 -0.38838744 -0.11694128 0.16163734 -0.05400856 -0.28184536 0.6549317 1.402639
mint -0.04581545 1.5119171 -1.0039535 -0.7508301 0.7606836 -0.6854055 1.2584565 0.5842774 0.13394286 0.22590101
fennel 0.24242993 1.1166493 -1.1642933 -0.049854103 0.9380797 -0.60316306 0.8335534 0.9246734 -0.09575362 0.42312974
away -0.36374813 0.92364997 -1.23703 -0.036527634 -0.2051776 0.16403134 -0.44468954 -0.8025862 0.75271595 1.1851815
air 1.087592 1.2000542 -1.4528043 -0.9023655 -0.16788037 0.07330038 -0.6928815 -0.7729893 0.5588108 0.95287615
timing 0.87769353 0.25461534 -1.5473171 -0.54339916 -0.20121253 -0.05109822 0.0997491 -0.50048697 0.7966309 1.207001
slow -0.51840705 0.34640184 -1.0840995 -0.61344916 0.5743356 -0.4955151 -0.16840807 -0.6768698 1.016555 0.6984973
halfway 0.7618444 -0.7901445 -1.4687849 -0.12171533 -0.5118615 -0.28984326 0.19882168 -0.24431182 0.5320494 1.6482079
mash 0.21785149 1.0866903 -0.43364787 -0.5862939 1.182323 -0.37038946 -0.58378357 0.14855891 -0.28399384 -0.08465018
sandwich 0.51527715 0.7444794 -2.350157 -1.1528304 0.49872285 -0.2766068 0.913123 -0.65076435 -0.8219552 0.5131887
wrappers 0.86220866 0.44446895 -1.3333285 -0.49469888 -0.08220863 0.0897283 -0.58448446 -0.8126482 -0.020869566 1.3226713
most 0.45983553 0.8024028 -0.61610615 -0.028578827 -0.14177646 -0.42149687 -0.1770625 -0.58567953 0.40505236 1.0846162
clear 0.47681034 1.0165378 -1.0338408 0.47942838 0.05908927 -0.073871955 -0.6742614 -0.16381134 0.18675047 1.065668
x 0.33073318 -0.34030816 -1.7127397 -1.538473 0.87962025 0.43007976 -0.25401098 -0.975233 -0.48468995 1.02398
halves 0.40723613 0.6824471 -1.6483246 -0.24317735 0.58014953 0.050290238 0.52687126 -0.16465384 -0.42099872 0.5179941
barely -0.31634492 0.42789522 -0.43156275 0.18371727 0.1567195 -0.81512177 -0.21841702 -0.6805359 1.3598548 1.3683202
prepared 0.7323167 0.6828651 -0.80113816 -0.8682448 0.42177 0.44173416 -0.340952 -0.6524139 0.078454934 1.1888295
sink 0.06991877 1.1927333 -1.0562981 0.41246927 0.77273786 -0.06868249 -0.73837864 -1.4928067 0.59408236 0.91878664
light -0.007180959 0.58323115 -1.1070147 0.24658366 0.14378466 -0.7557461 0.091152824 1.2206309 -0.013465205 0.95346683
cucumber -0.09150782 1.6715122 -0.8743054 -0.8095618 1.2703804 -0.21795705 0.6614183 0.54851675 -0.13480134 0.2437089
scoop 0.26623473 1.5643759 -1.5142123 -0.82815295 0.44979388 0.46902508 -0.6232124 -0.9413422 -0.10697291 0.41353932
thinly 0.47763523 1.7185551 -1.1592944 -0.33805746 0.7354133 0.42457515 0.20098646 0.20412363 0.18575458 0.8363904
batches -0.037669137 0.14932853 -0.41304833 0.34470186 0.30973476 0.27807468 -0.28547084 -0.15753621 0.12403483 1.3403816
best 0.9636325 0.80594736 -1.3151292 -0.43623152 -0.3086195 -0.5348069 -0.3941472 0.04511327 0.6549022 1.5004979
plates 0.71440464 0.99391913 -1.3523009 -1.2663308 0.012571751 0.094757445 1.1216196 -0.8852248 0.050475158 0.8764454
potato 0.28380245 1.0733885 -1.0409646 -0.6112861 0.7778357 -0.17855138 0.17448826 0.16297807 0.24837086 0.11361861
dip 0.82287747 0.8281262 -1.3019692 -0.8705642 -0.03761133 -0.12323112 -0.50674534 -0.48206657 -0.2318934 0.69326115
work 1.1974854 0.7271797 -1.3682622 -0.57111424 0.12985674 -0.029669708 -0.5612752 -0.70020306 -0.21505578 0.9478788
extra 0.31749654 0.9594231 -0.9373495 -0.8019625 0.038572777 0.13390087 0.101237684 -0.2708888 0.087417066 1.0579443
container 0.68790466 0.6925427 -0.62409645 -1.083997 0.8863049 -0.355144 -0.627757 -0.50547755 0.3267567 0.9931771
thaw 1.0015787 0.4985862 -1.060298 -0.87119347 0.22191097 0.3810888 -0.5845314 -1.0124048 0.79558456 0.41436845
spring 0.7010534 0.9758049 -1.0204159 0.2619346 0.35377133 0.29969728 0.53358024 0.12024526 -0.046574168 0.39931607
these 1.6801013 1.3353255 -1.3258126 0.013582644 -0.45123553 -0.26120043 0.10563276 0.29316947 0.109126635 0.9908025
scrape 1.0950477 0.80194306 -1.1241875 -0.5151937 -0.10086223 -0.027173134 -0.20838794 -0.13592829 -0.79622334 0.7806562
reduced 0.07925558 -0.011822392 -0.032416858 0.03417339 0.114336595 -0.9474948 0.10502237 0.23818581 0.6808893 0.86134267
pull 0.081680804 1.1991401 -1.6891725 -0.4528055 -0.10229793 0.2984454 -0.02684034 -0.78226686 0.61623955 1.2222832
careful 0.7391168 1.1775537 -1.4988791 0.5651969 -1.0703297 -0.3366935 0.022408048 0.05070037 -0.01308565 0.719791
crust 0.7882207 0.23841538 -1.394028 -0.6243282 -0.3534842 0.10423402 0.6654049 -0.27766758 -0.13864319 1.2051125
easily 0.8625086 0.6579938 -1.4554379 -0.13351858 -0.31784326 -0.4383937 -0.14423844 0.15162647 0.27325404 0.62805796
shape 0.90568054 0.89481115 -1.3565453 -0.6032025 0.39058885 -0.02655035 -0.9043964 -0.5365628 -0.069907226 1.1075016
big -0.031466886 0.6117528 -1.1688704 -0.2579353 0.17477061 -0.3307407 -0.4847712 -0.9249822 0.43942535 0.982627
gradually -0.462025 0.75444585 0.5340602 -0.35826075 0.85118634 -0.7186777 -0.4415631 0.74936163 0.19379582 1.1709367
chilli -0.08676162 1.1919601 -0.6842946 -0.68774295 0.9912421 -0.69190913 0.2062689 0.61390764 0.053489335 0.04321746
smaller 0.5321008 0.61835104 -0.8770987 0.3409305 0.1374289 -0.053483855 -0.768322 0.02686135 -0.02430145 0.90183955
lamb -0.0039379415 -0.18812227 -0.22647941 0.43027055 -0.17417903 -0.25456235 0.2557886 0.7136644 0.36157104 1.3696775
cauliflower -0.2374086 0.47720358 -0.7176152 0.00014423975 1.0008472 -0.36794084 0.63467085 0.45317554 0.56810105 0.9657045
almost 0.25869882 0.73192114 -0.7784341 0.2992301 0.11445625 -0.50044227 -0.00040693182 0.07869992 0.38908592 1.1397458
bacon -0.096694864 0.016456615 -1.0883361 -0.058446996 0.6287669 -0.13658138 0.4703482 0.92229754 -0.17810029 1.1187862
enchiladas 0.30466983 0.06432321 -0.57486534 -1.3157564 0.3741169 0.077874005 0.67986107 -0.29583448 0.09939003 1.1127318
used 1.1017495 1.0007775 -1.2512764 -0.4495356 -0.34311277 -0.21121922 -0.17963737 -0.040707298 0.02502385 0.5948734
starts -0.22381712 -0.18413366 -0.72053933 0.39378798 0.14858459 -0.38887882 -0.038051836 0.7224263 0.023153543 0.85702175
finish 0.27551258 0.2543761 -1.1757306 -0.13993303 -0.2972674 -0.108985186 -0.022292519 -0.48371136 -0.0009695345 0.7096955
comes -0.12889573 0.3292729 -0.5708675 -0.13207562 0.108319506 -0.12442616 -0.7363545 0.16079985 0.50624084 0.6057223
touch 0.8090058 1.1116536 -0.9937198 0.21912462 0.017558394 -1.2227774 -0.47285023 -0.41823477 0.37032628 0.93668497
strainer -0.007877924 0.8462405 -1.1746135 -0.26223812 0.5680011 0.22490321 -0.5083289 -1.0025407 0.55857617 0.8189173
amount 0.39498377 1.3185999 -0.7912239 -0.11067812 -0.051111247 -0.38421464 0.1628799 -0.3681633 -0.62891746 0.75293815
pesto 0.842767 1.3469841 -0.8436113 -0.8899172 -0.046737622 -0.26993075 0.34058526 -0.11012373 -0.48061875 1.2347976
store 0.871335 0.6953501 -0.83985907 -0.9307699 0.5721296 -0.21431506 -0.9209358 -0.8514057 0.2976802 1.0824759
depending 0.7268864 0.3143272 -1.3191162 -0.7287554 -0.2664589 -0.25443757 -0.20254464 -0.9270559 -0.19681433 0.8634442
reheat 0.47197223 -0.07455122 -0.46035895 -0.67255986 0.002630766 -0.5693244 -0.3761399 -0.5318421 0.703465 0.74960375
try 0.44144917 1.1626714 -1.4488949 -0.19550636 -0.6146538 -0.49382856 -0.44026265 -0.61144525 0.3452927 0.829171
whisking -0.0922114 -0.12516472 0.12370294 0.05944713 0.4720771 -1.0680388 -0.49715045 1.2314179 -0.25267416 1.1392505
which 0.9497686 1.1467726 -1.2610766 0.07452418 -0.53124267 -0.48838308 -0.30653945 -0.15848605 0.1328777 0.8337728
tossing 0.4685744 -0.5364867 -0.765385 -0.6303223 0.1852315 -0.29242468 -0.3438222 -0.009232874 0.5818505 1.3080418
teriyaki -0.067170806 1.2310228 -0.057430714 -1.0006403 0.97285485 -0.13383025 -0.30737978 0.36672464 -0.34831965 0.7092904
crushed -0.39880314 1.0728222 -1.049939 -0.51228637 0.83613837 -0.76760006 0.29499996 0.72764933 0.060283896 0.2100385
sized -0.04294962 0.39616045 -0.847957 -0.83011717 1.2380567 0.41141 -0.62544596 0.0063470416 -0.29588425 1.145843
damp 0.031232012 0.3240246 -1.3740568 -1.0170754 0.7421088 0.13373606 -0.60573506 -1.5566163 0.9629013 0.73010606
days 1.0802808 0.2676983 -1.4054978 -0.6040441 -0.20171237 -0.45973507 -0.6381752 -0.56207126 0.5899226 1.0724969
heating -0.07116054 0.001407122 -1.4407797 -0.15245423 -0.1644307 0.57978004 -0.96854746 -0.1299699 -0.1300209 1.179347
toasted 0.70831096 0.62649435 -0.5830946 -0.2080859 0.10912077 -0.5522396 0.684866 0.27910054 0.31386006 1.431581
yeast -0.18650128 1.0942206 0.6335587 -0.856382 1.1002933 -0.29958847 -0.7313566 0.50381523 -0.019597711 1.1763686
quick 0.25013617 1.1365123 -0.83028847 -0.4958306 0.16733253 -0.43493012 -0.4235784 -0.15399417 0.3247426 0.8702102
skewer 0.3134145 0.18172199 -1.3915011 -0.83450574 0.20186484 0.1376756 -0.117772415 -0.4469619 0.06584989 0.875967
creamy 0.78639996 1.1062315 -0.44075716 -0.41838413 -0.36090356 -0.66978574 -0.22813155 0.3857469 0.3857529 0.65278584
wide -0.14102833 0.26621512 -0.9560833 -0.032078546 0.54479516 -0.23478577 -0.8583439 0.37567538 -0.6253612 0.7923057
browning 0.5658327 0.59169453 -0.68644893 -0.29081532 -0.12181129 -0.33284467 -0.16340835 0.2846615 -0.32902998 0.7186534
aluminum 0.6284194 -0.04382125 -1.8564911 -1.2582628 0.1353174 0.052139007 -0.43877655 -0.8003895 0.18968253 0.81425685
bags 0.77481204 0.56604993 -0.8413529 -0.6821075 -0.018950488 0.20989442 -0.12460671 -0.8078093 0.40746644 1.233956
peanuts 0.07686658 1.1782107 -0.8677743 -0.34632313 0.5433939 -0.45336956 0.1964519 -0.40017596 0.111244455 0.13403699
spicy 0.8110838 1.4091824 -1.2539932 -0.21800621 -0.78560513 -1.042629 -0.27781504 0.30206028 -0.043344416 0.19968322
thickness 1.1125088 0.9622398 -1.1306709 -0.41054165 -0.27097112 -0.28704128 -0.35402885 -0.11187496 0.00058643514 0.65399516
cucumbers 0.02932748 1.0198942 -0.3749709 -0.50535595 0.84125924 0.2432712 0.15089802 0.01725213 -0.026538882 0.4779756
sticking 0.059312962 0.38857442 -1.1461362 -0.14778467 0.05335288 0.021338336 -0.50602806 -0.2349683 0.3531628 0.99938196
ghee -0.2923713 0.14646973 -0.536306 0.18476535 0.59594625 0.13854134 -0.1543431 0.48990533 -0.5833945 0.8140736
generously 0.00015299673 1.2406956 -1.5115889 -1.6790391 0.023997894 -0.547783 1.1570605 -0.6370279 0.3213221 0.0251879
hard -0.38242087 0.4892977 -1.2207052 0.024361996 0.36898082 -0.34705707 -0.45353436 -0.38369524 0.5367911 1.0281645
base 0.51190865 0.5070396 -1.0361363 -0.04524778 -0.117594875 -0.55359507 -0.5195692 0.18581395 0.09375035 0.9080647
oyster -0.36244744 1.1247896 0.01712341 -0.6403424 0.84142506 -0.43494195 -0.12519464 0.89819056 0.18664639 0.9153642
raise -1.2376323 0.15683906 -1.2047077 -0.6443958 -0.09650273 -0.5450737 0.1381804 0.28683692 0.39308864 0.68978935
fried 0.6886945 0.92764884 -1.0240558 -0.42661408 0.13536166 -0.3598117 0.44245443 0.41120523 0.409413 0.9643173
balls 0.5903223 0.82534164 -1.0467039 -0.7340285 0.67178464 0.053931892 -0.73313093 -1.0298146 -0.06978745 1.0074853
tap 0.100747846 0.48148826 -0.7014946 0.9563628 0.05898641 -0.59484464 0.008595153 -0.7640494 0.6878382 1.4468633
gentle -0.9743649 -0.26114464 -0.7212243 -0.45366946 0.460927 -0.91966254 -0.3410337 -0.10961964 1.0654211 0.55007285
partially 0.5489743 -0.13647373 -0.8859702 -0.17011255 -0.15296611 -0.15018825 0.22717929 -0.40749508 0.22996737 1.2547059
strands 0.26489532 1.353406 -1.0177425 -0.3597963 0.7656889 0.31951186 -0.49773145 -0.5614466 -0.07059392 0.75437987
flesh 0.049888346 1.3897423 -1.3607541 -0.3436497 0.24536635 0.6818008 -0.6011678 -0.6667684 0.15425444 0.82360744
warmed 0.69747686 0.12105303 -0.8937839 -0.43108988 0.14927262 -0.41801217 0.70569706 0.21384034 0.59876984 1.1182188
pinch 0.2472128 0.6669788 -0.92862374 -0.8538026 0.5555174 -0.26774082 -0.29730466 -0.52321374 -0.4305586 0.51002985
mozzarella 0.31536153 0.7086368 -0.7920075 -0.43785703 0.7045507 -0.6783268 1.2058855 0.49031222 0.30141467 0.5593938
drying -0.11499086 0.5516385 -0.98707414 -0.6952492 0.32561043 0.61544883 -0.9205068 -0.810309 0.27883184 0.8576758
third -0.1553043 -0.16585939 -1.1424472 -1.2078016 0.19521856 0.74514204 0.30727375 -0.6441153 -0.56546915 1.08406
noodle 0.13827032 1.3344265 -0.5555315 -0.5250039 1.137319 0.5518309 -0.17365928 -0.66400456 -0.031226858 1.2604858
watch 0.5319611 -0.030069517 -1.1341808 -0.13911499 -0.49498925 -0.44531742 -0.5308786 -0.13549964 0.52685267 0.7090282
pita 0.8864742 0.7558719 -1.614252 -0.60602623 -0.009778447 -0.28466767 0.4805117 -0.5566413 0.14465417 0.5701255
board 0.88726807 1.0486522 -1.5798591 -0.6408496 -0.28923175 0.074444436 -0.3291039 -0.727815 0.27107373 0.8994159
cooled 0.67054147 0.4128308 -0.2581027 -0.31387132 0.06119464 -0.23127769 -0.6313911 -0.3993896 0.59278667 1.0358747
garnishes 0.45870572 0.4476448 -0.78722936 -0.9643879 0.275857 0.08060468 0.3809468 -0.50014395 0.0022233299 0.79199696
shoots 0.06018478 1.6481582 -0.7998984 0.41437176 1.0681949 -0.6880756 0.7146391 0.7886272 0.13909715 0.32985738
been 0.9647204 0.9601906 -0.404067 0.15507446 -0.036183886 -0.28684443 0.07032134 0.38992152 0.048846982 1.3355283
choice 0.5568546 0.8623819 -1.0285867 -0.6843053 0.28431156 -0.2239799 -0.12866317 -0.5029425 -0.031474944 0.93427515
touching 0.8747284 0.7181097 -1.6054705 6.0766542e-05 -0.7748133 0.10550588 -0.18166947 -0.5865553 0.13792753 1.2044625
olives 0.7667922 0.9078662 -1.1425712 -0.79427296 0.7762423 -0.52830654 0.8964003 0.38639268 0.15129754 0.32462263
dark 0.22284098 0.71334547 -0.39598316 0.18362072 0.12856503 -0.21474734 -0.17705546 0.7522083 -0.18568698 1.1300362
chops 0.3369938 0.7457378 -0.8976799 -0.5611531 -0.06575558 0.04245823 -0.18887979 0.07257406 0.31592545 1.0660092
pho -0.3978102 1.2180254 -0.52085716 -0.6102401 0.00776303 0.012833054 0.43660018 -0.21696548 0.7558818 0.78614813
fillets 0.12799084 0.4230559 -1.1241677 -1.0367926 0.50610024 0.14425498 0.24436033 -0.56331176 -0.022141727 0.8172603
firm 0.8131476 0.58380014 -0.85661256 0.09972898 -0.36605492 -0.09126661 -0.076809905 0.07897779 0.25812864 1.3379599
canned 0.090479515 0.99921244 -0.38005236 -0.24763694 0.32526726 -0.42019275 -0.022235747 0.19183165 0.65361595 0.30348924
roasted -0.15649346 1.0259662 -0.8588476 -0.01777087 0.5608654 -0.69113934 0.5913699 0.5936097 0.1640973 0.61342114
tongs -0.030983998 0.74311316 -0.8995533 -0.41816413 -0.26811963 -0.025556272 -0.3092101 -0.3066241 0.3364512 0.7521303
makes 0.68811685 1.1256032 -0.977257 -0.2859982 0.1902078 -0.7081564 -0.14905164 -0.13291153 0.10282483 0.7645669
lined -0.0483553 0.32839957 -1.2011778 -0.8835973 0.6827808 0.20114484 0.092744045 -1.1230793 0.6432107 0.8801146
move -0.21736813 -0.10978264 -0.8028943 -0.18033294 0.11431106 0.106825575 -0.058485657 0.27491713 -0.041250557 0.9458608
including 0.035543807 0.9746057 -0.10428216 -0.73932797 0.49267867 -0.40449035 0.06751827 -0.15799169 0.26828313 1.145885
colour -0.034986924 -0.0549582 -1.2877479 0.2551377 -0.3753822 -0.086103804 -0.25324577 0.5165091 0.14305261 0.985509
parchment 0.38490817 -0.17485759 -1.5600681 -1.1314814 0.542298 0.32640907 0.2747156 -1.1184946 0.01736837 0.581565
eat 0.91519594 1.1528399 -1.0009913 -0.33194453 -0.2254864 -0.23405086 -0.49095047 0.06398426 0.039207645 0.8912955
below -0.052104115 0.2515438 -1.5222706 -0.4172028 0.15132838 0.45567518 -0.8139826 -0.3219815 -0.14808115 0.9339036
quarts -0.3984544 0.9436488 -0.43846437 0.37452543 0.013499483 -0.71372926 0.06467041 -0.89668393 0.7459916 0.81373256
second 0.7604981 0.08344499 -1.0291272 -0.5110924 -0.20419337 -0.24605064 0.10649771 -0.28995463 0.038854506 0.9386084
above 0.4011298 0.8347454 -0.76934445 -0.49903843 0.4988506 -0.41692927 -0.18262047 -0.43320903 0.19420019 0.7121903
would 1.4869171 1.509524 -1.3540378 -0.46440116 -0.44922754 -0.8729206 -0.58723974 -0.11804187 0.14585374 1.2226051
hold 0.20830512 0.4872537 -1.1063157 -0.30661297 0.42432716 0.17303327 -0.33320534 -0.4033579 -0.22199565 0.9978973
pizza 0.5010964 0.22533266 -1.097154 -0.7469567 0.2968745 0.12434086 0.3014872 -0.58715945 -0.05801893 0.5213781
chilled 0.7965178 0.5715689 -0.7475828 -0.7483868 -0.17866798 -0.49179822 -0.113744795 -0.43369207 0.6965271 0.9487777
grease 0.34302667 -0.12275356 -1.0185758 -0.80637634 0.4671584 0.18015027 -0.19229123 -0.2782225 0.04960022 0.63021684
tough 0.34415177 0.7506435 -1.3889014 0.0012448571 0.040616386 0.07514188 -0.48913503 -0.1694083 0.022520995 0.85009557
kale 0.042325374 0.4332736 -1.0325078 -0.74585295 0.5817907 0.27604282 0.24512783 0.20456173 -0.060096562 0.3377231
okra -0.059383314 0.06942489 -0.35582224 -0.13913289 0.26361874 -0.79734755 -0.0862559 0.36692637 0.5897778 0.57829154
thighs 0.22791153 0.45385942 -0.7868111 -0.3489783 0.106246315 0.34926054 0.08722358 -0.15337 0.5109853 1.3231686
steaks 0.4193553 0.77959955 -1.0683272 -0.64656585 0.21821415 -0.09817268 0.050071407 -0.34485862 0.06915964 0.96897256
sizzle -0.25407246 0.45570394 -0.7020504 0.35057104 0.27798772 -0.8633577 -0.16108859 0.4064967 0.16604862 0.76466846
later 0.2778313 0.20520072 -0.75290745 -0.4500068 -0.1578467 -0.1713181 -0.63252604 -0.24043058 0.15727913 0.9640647
pumpkin 0.213744 1.1535248 -1.5569539 -1.0616682 0.084464744 -0.14322317 0.2897565 0.004304499 -0.25230387 0.45053288
crumbs 0.19364993 0.8643781 -0.59954506 -1.0918057 0.69416964 0.094930425 0.34174654 0.0006301348 -0.27310544 0.49952176
naan 0.7952321 0.55751836 -1.2447584 -0.50056577 -0.05664963 -0.0919527 -0.21768269 -0.25846314 -0.16216616 1.099021
defrost 0.73264426 1.0263293 -0.8583248 -0.37297824 0.054458674 -0.26168326 -0.37301582 -0.41858542 0.44203573 0.75588375
herbs 0.6675207 0.9737541 -0.54940575 -0.17134187 -0.37211335 -0.6653805 0.022882165 0.32140467 0.30402935 0.24673313
turns 0.046551477 0.40965754 -0.5714307 -0.015629621 0.16293018 -0.39805478 0.40147817 0.87080103 0.6279417 1.0155996
seems 1.0657295 1.0551925 -0.80416566 0.08761928 -0.24430928 -0.34800792 -0.6295977 -0.15427235 0.47217223 0.69282776
resealable 0.27464417 0.85315114 -0.69840866 -0.67385304 0.5516583 0.37662786 -0.49915063 -0.5775265 -0.35835782 0.6039785
saffron -0.18877138 0.5189116 -0.39257938 -0.12527566 0.3356532 -0.46109158 0.271133 0.15490815 0.11239642 0.5700994
apple -0.14210789 1.4031227 -0.062352028 -0.6852927 0.5076306 -0.71173775 -0.19551477 0.6049036 -0.41311076 0.37603036
becomes 0.42131594 0.57650536 -0.15284592 0.24025653 0.46822464 -0.27435082 0.03677293 1.0097619 0.057465464 0.96550226
shred 0.046754155 0.69635534 -0.94416225 -0.538001 -0.0481443 -0.07424904 -0.47157833 -0.57082385 0.56082517 0.76058584
taco 0.3181759 1.5013041 -0.36792314 -0.91606593 0.6705402 -0.31242308 0.31560078 0.050920956 0.47789943 0.69639206
jar 0.30706146 0.722977 -0.7688224 -0.80887 0.6365032 -0.3026749 -0.5827334 -0.5421052 0.25074527 1.1049513
membrane 0.07980612 1.2774076 -1.0195376 -0.6657868 0.029062012 0.31662545 -0.5703085 -0.5200463 0.11762185 0.6318648
smoking 0.1882906 0.81020087 -1.2537405 0.8804175 0.012126338 -0.4092519 0.06244709 0.7834457 -0.34135777 0.87208515
almonds 0.35601178 0.90165615 -0.9034815 -0.34407535 0.3353132 -0.41861993 0.26343626 0.35005945 -0.040279485 0.7455901
pressure -0.30936417 0.49496865 -0.85503346 0.06774702 0.057889603 -0.5872453 -0.5628572 -0.67530626 0.5959427 0.7677657
larger 0.24405842 0.6568561 -0.9114228 -0.03067503 0.5624168 0.1864284 -0.20894946 -0.1337128 0.021960018 0.7574373
shredded 0.096185714 1.2579997 -0.49776712 -0.54198986 0.63374597 -0.39066154 0.5113366 0.3634219 0.1957138 0.5094356
devein 0.2447715 0.6912926 -0.40862948 -0.24529159 0.16864413 0.5816992 0.17700377 -0.024550747 0.38529608 0.8887014
smoke -0.121484645 0.4635441 -0.88053054 -0.2407491 -0.11234 -0.6609368 -0.14406452 -0.0067156004 0.294429 1.0362841
avocado 0.30830312 0.7435295 -0.9348163 -0.9135123 0.50638145 -0.13279188 0.39740837 -0.5731206 0.2001493 0.49461192
rosemary -0.3779754 0.9374892 -0.56308556 -0.54341495 0.69383913 -0.80362403 0.6317954 0.7442511 0.11842311 -0.15376191
iron -0.2494928 -0.43892008 -1.5114635 -0.19365348 0.5208028 0.29345012 -0.70941097 -0.34474173 -0.49255556 0.87722296
greased -0.14938995 -0.40032673 -0.81377244 -0.51074183 1.0087063 0.3537872 -0.0797783 -0.65896624 -0.120403916 0.9073781
beaten 0.07594299 0.43479723 -0.2760348 -0.26453632 0.61564225 -0.3590712 -0.24727167 0.16576764 -0.16936678 1.0134646
depends 1.2636161 0.4963203 -1.296521 -0.4623946 -0.50006235 0.1897863 0.029029313 -0.52524525 0.3493854 0.7562406
scum 0.20340754 0.52760243 -1.033062 -0.15212876 -0.53674704 0.23827043 -0.30948532 -0.9633093 0.5303885 0.94393504
pick 0.32153642 0.93591106 -0.5343725 -0.29057848 -0.1283026 0.1634887 0.2408284 0.1804826 0.6802242 1.0904042
trim 0.18737394 0.85902554 -1.2408547 -0.30305985 -0.19670981 0.11345634 -0.19829847 -0.2053606 0.2855545 0.76572263
til -0.11341699 0.5254419 -0.46923408 0.5571453 0.22853056 -0.14737754 -0.042625282 0.49962085 0.041938998 1.1091508
vigorously -0.21812798 0.123186044 -0.32262987 0.22966655 0.2872484 -0.7567865 -0.6477355 -0.5101213 0.70566386 0.64985514
layers 0.5597024 0.7634951 -0.92940116 -0.772348 0.49524102 -0.20769145 -0.34529603 -0.8135006 0.22470987 0.8073456
cooks 0.5962403 0.73284656 -0.8312203 -0.08616409 0.008274868 0.13162039 -0.35465398 0.08245401 -0.04907935 1.1113305
round 0.47716373 1.006004 -1.4184971 -0.71166646 0.4909489 0.06215513 -0.41527674 -0.70842 0.0212951 0.95242774
sake 0.020563044 0.85618377 -0.35075113 -0.7242807 0.849032 -0.3941709 -0.29859373 0.6035473 -0.0933117 0.34061378
drop 0.1106052 0.4179251 -0.5647144 0.11489367 0.37920713 -0.029362004 -0.34547335 -0.23437297 -0.3293749 0.88810444
increase -0.6536667 -0.51318115 -0.6182548 -0.032155618 0.49368858 -0.09044603 -0.51787055 0.32306185 0.24085787 0.81714404
care 0.7545028 0.42025617 -1.5152893 0.6958251 -0.64294785 -0.39676163 -0.107784316 0.080500096 0.25766134 1.0782925
shears 0.4642905 1.3174709 -1.0968596 -0.016164042 -0.03257089 0.67688537 0.058772918 -0.29118142 -0.2195996 0.7941099
bits 0.20091031 0.4227183 -0.5573661 -0.30524728 0.025051383 0.27482498 -0.24113292 -0.24624673 0.058217496 0.9337595
uncover 0.52759904 -0.20883536 -0.741355 -0.4449591 -0.40113613 -0.47613046 0.1841756 -0.098204404 1.0015827 0.8835355
sear 0.62844014 -0.44747734 -1.0889432 -0.4580692 -0.36944163 -0.15217997 0.47735965 -0.12747478 0.111027695 1.0965072
three 0.34062865 0.7713725 -0.9693638 -0.7113581 0.8599822 0.017153127 -0.16323401 -0.17135346 -0.37895983 0.6194058
cast -0.31495664 -0.5961788 -1.5893062 -0.2220977 0.53427756 0.35416186 -0.7789558 -0.39783037 -0.40021083 0.77140695
favorite 0.71942294 0.9396955 -1.3991553 -0.6450953 0.22914591 -0.16118833 -0.12126255 -0.4683711 0.19007723 0.6128256
mixed 0.123721056 0.71166706 -0.115194045 -0.6444612 0.73383254 -0.2393632 0.19439828 0.27280894 0.09148924 0.7259338
burning -0.05298963 0.32889608 -0.8055644 0.03225797 -0.04447742 -0.13837655 -0.32749647 0.2855597 0.26153877 0.89454037
chinese -0.24677788 -0.014707183 -1.2249178 0.15477687 0.5087211 -0.09722251 0.04548449 0.012789227 0.27964708 1.0335481
sometimes 0.60886705 1.2490469 -0.91578925 -0.40434146 -0.28561264 -0.53871036 0.08798584 0.3769441 -0.043091185 0.87921625
steamer 0.2827471 -0.1192279 -1.0886735 0.008548097 0.39190546 -0.32099208 -0.48169616 -0.33885634 0.16406332 0.71707165
doneness 0.38444427 0.4628718 -1.0560801 -0.13367847 -0.38598678 -0.3439384 -0.2014696 -0.04254845 0.71604306 1.1435966
cubed 0.1524562 0.5927205 -0.6288276 -0.59913445 0.46681964 -0.21966468 0.43669152 0.4231026 0.0981851 0.8366025
pound 0.48919934 0.7913191 -1.1217068 -0.15521334 0.13589789 0.09461416 -0.26999843 -0.4255293 0.46197438 1.0650162
rib 0.42615938 0.44225216 -1.6966324 -1.1635176 0.3296017 -0.16871738 0.13194126 -0.32533878 -0.26301733 0.92574126
steep 0.10539971 0.21478942 -0.619883 -0.4241895 -0.14219692 -0.77079755 -0.42497963 -0.121215306 0.9801588 1.2816752
beat 0.0028792534 0.92896 -0.2784835 -0.6203247 0.9096544 -0.20941387 -0.090984 0.24561 -0.3106954 0.6103032
chips 0.75323766 0.6446955 -0.9450345 -0.7580681 0.09613464 -0.21039072 0.34455538 -0.54121816 0.29841903 0.410152
stop 0.15028355 0.62210655 -0.45374587 0.3236346 0.11217695 -0.39627326 -0.27612668 -0.33208582 0.20666659 1.1176683
spatula 0.121362604 0.2997922 -0.6998993 -0.55135894 0.34814668 -0.12421749 -0.23461677 -0.20028287 0.12760507 0.5529458
getting 0.61789334 0.65032685 -0.9125135 -0.1321712 -0.19627635 0.03674851 -0.17090221 -0.10708666 -0.08020826 0.9695184
pie 0.44289187 -0.0043658726 -1.1002369 -0.6994601 0.31312007 0.3664053 -0.21527761 -0.46977028 0.051210783 0.87027884
uncooked 0.4096072 0.56147707 -0.7654144 -0.6205477 0.5162282 0.16514283 0.4649112 -0.8689016 0.24895912 0.8768868
separated 0.46823335 0.45162365 -0.99975073 -0.070376776 -0.41931418 0.17302233 -0.4478993 -0.052092757 0.19795226 0.8751247
crackers 0.604374 0.58989197 -1.1078721 -0.6305684 0.39952537 -0.2007551 0.116764255 -0.1417307 0.43874758 0.6877058
evaporated 0.4617757 0.42640543 -0.073736295 0.13955861 0.1485707 -0.29030204 -0.34429687 -0.10887441 -0.016699847 1.0000497
seed -0.26870477 1.1406747 -1.0302995 -0.19210339 0.33627614 -0.68218774 0.38296422 0.42396304 0.16274118 0.09051909
snow 0.669875 0.9692608 -0.56390166 0.52898794 0.24048199 -0.49770996 0.48795968 0.4915838 0.47666952 0.8224445
though 1.0700045 0.90766484 -1.446437 -0.3847746 -0.3965691 -0.22501545 -0.32675448 -0.13980798 -0.046634175 0.7541958
cashews 0.33751202 0.6068091 -0.11485773 -0.24833077 0.2800648 -0.455215 -0.1945991 -0.0022094501 0.07492413 0.3196945
greens 0.37731242 1.0701381 -0.710178 -0.68846536 1.0559516 0.056130283 0.07069557 -0.019720381 -0.21515252 0.106061526
lots 0.55060905 1.2784919 -1.0155491 0.07035679 -0.31960663 -0.38533154 0.27565184 -0.08339246 -0.15518 0.6523346
handful -0.38920158 0.9918934 -0.4937244 -0.5049135 0.8441338 -0.024287142 -0.4983307 -0.8231496 -0.119325064 0.30853942
cod -0.117406264 0.3001008 -0.5884996 -0.24478336 0.23955338 -0.2116143 0.07757441 0.109712996 0.2622998 0.5062474
cans 0.1851675 0.6766401 -0.751971 -0.32564068 0.086372495 -0.4658881 -0.06009266 -0.23552458 0.09408708 0.86586857
tops 0.39435396 0.57509977 -0.67331266 -0.40220982 -0.039395913 0.0063424106 0.35440457 0.02007723 -0.3005381 0.5225829
topping 0.048118785 0.31643793 -0.5174474 -0.30849198 0.044021152 0.0001828144 -0.29316702 -0.090422295 0.30926543 0.8158656
tin 0.5568389 0.23010482 -1.4801521 -0.6753506 0.09136215 0.10888247 -0.4703187 -0.64972425 0.10413275 0.57120574
sauces 0.37851596 0.9922555 -0.62784684 -0.17738032 -0.010595709 -0.41853845 0.20284075 0.5735718 0.0844435 0.64700395
burritos 0.87468463 0.19282869 -1.2643147 -0.9643615 0.25261468 0.4033123 -0.1451581 -0.40765 0.15424587 0.9426483
french 1.017237 0.95066583 -1.2863171 -0.5403096 0.34975213 -0.23676555 0.04696846 0.12842089 0.011724609 0.96481633
prefer 0.25268012 0.7892934 -1.0090925 -0.104288585 -0.28592947 -0.5022369 -0.63484985 -0.11128691 0.11809877 0.29341325
teaspoons -0.105271615 0.2790471 -0.098854244 -0.37363818 0.28117722 -0.37978545 -0.37194192 -0.27404028 0.07494029 0.24979745
